
const float layer1_weights[] = {

//val(:,:,1,1) =

    0.0047,   -0.0191,   -0.0188,    0.0457,    0.0273,
   -0.0068,   -0.0174,    0.0803,    0.0984,    0.0312,
   -0.0519,    0.0544,    0.1668,    0.1906,    0.0560,
    0.0299,    0.1653,    0.2143,    0.1560,    0.0542,
    0.0422,    0.1210,    0.1060,    0.0853,    0.0293,


//val(:,:,1,2) =

    0.0320,    0.0521,    0.0538,    0.0038,   -0.0043,
    0.0624,    0.1045,    0.1121,    0.0896,    0.0584,
    0.0002,    0.0163,    0.0218,    0.0517,    0.0556,
   -0.0718,   -0.0777,   -0.0598,   -0.0459,   -0.0105,
   -0.0704,   -0.0838,   -0.0804,   -0.0687,   -0.0224,


//val(:,:,1,3) =

    0.0403,    0.0517,    0.0029,   -0.0030,   -0.0162,
    0.0228,   -0.0239,   -0.0203,   -0.0234,    0.0257,
   -0.0470,   -0.0553,   -0.0147,    0.0282,    0.0479,
   -0.0626,   -0.0328,    0.0424,    0.0595,    0.0308,
   -0.0116,    0.0234,    0.0651,    0.0611,   -0.0399,


//val(:,:,1,4) =

   -0.0296,    0.0295,    0.0469,    0.0238,    0.0194,
   -0.0233,    0.0491,    0.0788,    0.0312,    0.0042,
    0.0260,    0.1011,    0.0742,    0.0220,   -0.0221,
    0.0428,    0.0871,    0.0253,    0.0085,   -0.0138,
    0.0199,    0.0030,   -0.0335,   -0.0341,   -0.0304,


//val(:,:,1,5) =

   -0.0040,   -0.0293,   -0.0207,    0.0489,    0.0949,
   -0.0254,    0.0193,    0.0646,    0.0957,    0.0675,
    0.0105,    0.0414,    0.0392,   -0.0375,   -0.0214,
   -0.0001,    0.0059,   -0.0634,   -0.0709,   -0.0604,
   -0.0023,   -0.0411,   -0.0314,   -0.0333,    0.0004,


//val(:,:,1,6) =

    0.0234,    0.0085,   -0.0140,   -0.0481,   -0.0561,
   -0.0051,   -0.0470,   -0.0748,   -0.0913,   -0.0949,
   -0.0443,   -0.0732,   -0.0705,   -0.1096,   -0.0556,
   -0.0447,   -0.0710,   -0.0880,   -0.0639,   -0.0168,
   -0.0415,   -0.0389,   -0.0408,   -0.0138,    0.0312,


//val(:,:,1,7) =

   -0.0019,   -0.0014,   -0.0145,   -0.0011,   -0.0034,
   -0.0083,   -0.0431,   -0.0675,   -0.0641,   -0.0636,
   -0.0079,   -0.0100,   -0.0647,   -0.0591,   -0.0480,
    0.0021,    0.0112,    0.0292,    0.0137,    0.0322,
    0.0450,    0.0409,    0.0794,    0.0687,    0.0559,


//val(:,:,1,8) =

    0.0251,    0.0489,    0.1113,    0.0902,    0.0689,
   -0.0188,    0.0132,    0.0179,    0.0504,    0.0856,
   -0.0535,   -0.0531,   -0.0324,   -0.0126,    0.0470,
   -0.0623,   -0.0630,   -0.0560,   -0.0300,    0.0160,
   -0.0099,   -0.0167,   -0.0265,   -0.0137,    0.0057,


//val(:,:,1,9) =

    0.0243,    0.0185,   -0.0106,   -0.0163,   -0.0078,
    0.0123,    0.0044,    0.0157,    0.0076,    0.0251,
    0.0186,   -0.0134,   -0.0017,    0.0046,    0.0182,
   -0.0076,   -0.0116,   -0.0084,   -0.0003,   -0.0148,
   -0.0093,   -0.0135,   -0.0235,   -0.0259,   -0.0327,


//val(:,:,1,10) =

   -0.0160,   -0.0273,   -0.0540,   -0.0661,   -0.0293,
   -0.0369,   -0.0545,   -0.0608,   -0.0496,   -0.0004,
   -0.0509,   -0.0556,   -0.0680,   -0.0083,    0.0423,
   -0.0490,   -0.0414,   -0.0082,    0.0247,    0.0269,
   -0.0269,   -0.0124,    0.0372,    0.0316,    0.0186,


//val(:,:,1,11) =

   -0.0080,    0.0158,    0.0150,   -0.0534,   -0.0328,
   -0.0133,   -0.0365,   -0.0957,   -0.0419,    0.0132,
   -0.0177,   -0.0885,   -0.0526,    0.0181,    0.0570,
    0.0294,    0.0575,    0.0604,    0.0822,    0.0217,
    0.0571,    0.0918,    0.0849,    0.0404,   -0.0178,


//val(:,:,1,12) =

   -0.0325,    0.0035,   -0.0123,   -0.0145,   -0.0104,
   -0.0194,    0.0148,   -0.0220,   -0.0404,   -0.0431,
    0.0203,    0.0151,   -0.0383,   -0.0322,   -0.0383,
    0.0266,    0.0199,   -0.0267,   -0.0310,   -0.0572,
    0.0250,    0.0332,   -0.0139,   -0.0107,   -0.0389,


//val(:,:,1,13) =

   -0.0080,    0.0264,    0.0338,   -0.0161,   -0.0359,
    0.0067,    0.0611,    0.0215,   -0.0450,   -0.0495,
    0.0417,    0.0773,    0.0077,   -0.0494,   -0.0365,
    0.0454,    0.0688,    0.0053,   -0.0265,   -0.0155,
    0.0416,    0.0524,   -0.0215,   -0.0074,   -0.0031,


//val(:,:,1,14) =

    0.0168,    0.0265,    0.0363,    0.0243,    0.0443,
   -0.0123,    0.0044,    0.0452,    0.0358,    0.0298,
   -0.0300,   -0.0274,   -0.0045,    0.0030,    0.0274,
   -0.0650,   -0.0528,   -0.0592,   -0.0188,    0.0144,
   -0.0108,   -0.0267,   -0.0327,   -0.0219,   -0.0075,


//val(:,:,1,15) =

    0.0420,    0.0235,    0.0125,   -0.0006,   -0.0186,
    0.0270,    0.0200,   -0.0084,   -0.0290,   -0.0210,
   -0.0110,    0.0094,    0.0114,   -0.0357,   -0.0268,
   -0.0338,    0.0002,   -0.0041,    0.0038,    0.0049,
    0.0061,   -0.0033,    0.0319,    0.0269,    0.0237,


//val(:,:,1,16) =

   -0.0084,    0.0927,    0.0726,   -0.0331,   -0.0464,
    0.0206,    0.0911,    0.0397,   -0.0664,   -0.0746,
    0.0499,    0.0891,    0.0108,   -0.0787,   -0.0531,
    0.0334,    0.0602,   -0.0205,   -0.0552,   -0.0224,
    0.0310,    0.0098,   -0.0193,   -0.0198,    0.0102,


//val(:,:,1,17) =

   -0.0175,   -0.0300,   -0.0156,   -0.0247,   -0.0413,
   -0.0247,   -0.0259,   -0.0278,   -0.0385,   -0.0298,
   -0.0333,   -0.0222,   -0.0150,   -0.0110,    0.0206,
   -0.0181,    0.0104,   -0.0056,    0.0054,    0.0228,
   -0.0041,    0.0064,    0.0001,   -0.0077,    0.0257,


//val(:,:,1,18) =

    0.0341,   -0.0017,   -0.0695,   -0.0501,   -0.0185,
    0.0750,    0.0218,   -0.0441,   -0.0286,   -0.0304,
    0.0665,    0.0924,    0.0732,    0.0308,    0.0222,
    0.0271,    0.0528,    0.0739,    0.0464,    0.0060,
   -0.0481,   -0.0624,   -0.0167,   -0.0031,    0.0095,


//val(:,:,1,19) =

   -0.0179,   -0.0488,   -0.0249,    0.0202,    0.0535,
   -0.0547,   -0.0648,   -0.0315,    0.0123,    0.0858,
   -0.0668,   -0.0660,   -0.0637,    0.0175,    0.0968,
   -0.0651,   -0.0681,   -0.0279,    0.0345,    0.0675,
   -0.0393,   -0.0262,   -0.0198,    0.0313,    0.0442,


//val(:,:,1,20) =

    0.0212,   -0.0135,   -0.0318,   -0.0474,   -0.0413,
    0.0162,   -0.0058,   -0.0578,   -0.0879,   -0.0902,
    0.0355,    0.0441,    0.0029,   -0.0245,   -0.0418,
    0.0204,    0.0932,    0.1080,    0.0870,    0.0746,
    0.0054,    0.0507,    0.0786,    0.1056,    0.0871,

};
