
const float layer5_bias[] = {

    0.0278e-3,   -0.0951e-3,   -0.0205e-3,    0.0610e-3,    0.3391e-3,   -0.0337e-3,    0.1430e-3,    0.4577e-3,    0.0921e-3,

    0.3155e-3,    0.0724e-3,   -0.0378e-3,    0.2040e-3,   -0.1261e-3,   -0.1271e-3,    0.2522e-3,   -0.0165e-3,   -0.0041e-3,

    0.1805e-3,   -0.2163e-3,   -0.0070e-3,    0.0805e-3,    0.0630e-3,   -0.0441e-3,   -0.0242e-3,    0.0428e-3,   -0.0447e-3,

   -0.0163e-3,   -0.1768e-3,   -0.1089e-3,    0.0167e-3,    0.1093e-3,    0.0171e-3,    0.1006e-3,   -0.0433e-3,   -0.0938e-3,

   -0.4193e-3,   -0.0349e-3,    0.2066e-3,   -0.1185e-3,    0.1577e-3,    0.5025e-3,    0.2425e-3,   -0.0085e-3,   -0.3404e-3,

    0.2769e-3,   -0.1429e-3,   -0.0295e-3,    0.4490e-3,   -0.2640e-3,   -0.0542e-3,    0.1489e-3,   -0.2638e-3,   -0.1498e-3,

   -0.0607e-3,   -0.1970e-3,   -0.1440e-3,   -0.0211e-3,    0.0133e-3,   -0.0556e-3,    0.0965e-3,    0.1061e-3,    0.4358e-3,

   -0.0353e-3,   -0.1523e-3,   -0.1049e-3,    0.1670e-3,   -0.0385e-3,    0.1576e-3,    0.0649e-3,    0.0434e-3,    0.0308e-3,

    0.0836e-3,   -0.0650e-3,   -0.0284e-3,    0.0512e-3,    0.0337e-3,    0.0121e-3,   -0.1812e-3,    0.2999e-3,   -0.1306e-3,

    0.1632e-3,   -0.1489e-3,    0.0371e-3,    0.0070e-3,    0.1876e-3,    0.2246e-3,    0.1657e-3,    0.4759e-3,   -0.3465e-3,

    0.1216e-3,   -0.0740e-3,   -0.0920e-3,    0.0155e-3,    0.0649e-3,    0.1469e-3,    0.3597e-3,    0.0285e-3,   -0.0554e-3,

   -0.1517e-3,   -0.2466e-3,    0.1409e-3,    0.2043e-3,   -0.0239e-3,   -0.0923e-3,   -0.0023e-3,   -0.0794e-3,    0.2122e-3,

    0.2348e-3,    0.1245e-3,    0.1402e-3,   -0.0731e-3,   -0.1162e-3,   -0.1323e-3,   -0.2545e-3,    0.3861e-3,   -0.1252e-3,

   -0.0451e-3,    0.2377e-3,   -0.1596e-3,   -0.0296e-3,    0.0996e-3,    0.0535e-3,    0.1809e-3,   -0.2387e-3,    0.1280e-3,

   -0.0715e-3,   -0.0646e-3,    0.1860e-3,   -0.0076e-3,    0.0554e-3,    0.0059e-3,   -0.0200e-3,   -0.0727e-3,   -0.0621e-3,

   -0.0277e-3,   -0.0373e-3,    0.0946e-3,   -0.0469e-3,    0.0502e-3,    0.2991e-3,   -0.2223e-3,    0.0295e-3,   -0.2572e-3,

   -0.1310e-3,   -0.0105e-3,    0.1615e-3,    0.0297e-3,    0.1030e-3,   -0.0165e-3,   -0.0812e-3,   -0.0517e-3,    0.0218e-3,

   -0.0643e-3,   -0.1302e-3,   -0.0594e-3,    0.0202e-3,   -0.2008e-3,   -0.1990e-3,   -0.0095e-3,    0.1069e-3,   -0.0234e-3,

   -0.0354e-3,    0.0792e-3,   -0.1477e-3,   -0.0043e-3,    0.4131e-3,    0.1304e-3,    0.0018e-3,   -0.0783e-3,    0.1909e-3,

   -0.3076e-3,   -0.0201e-3,    0.2888e-3,    0.1875e-3,   -0.0487e-3,    0.1948e-3,    0.0063e-3,   -0.1424e-3,   -0.1911e-3,

    0.1756e-3,    0.0957e-3,   -0.1742e-3,   -0.2177e-3,   -0.0361e-3,   -0.0652e-3,    0.2479e-3,    0.2000e-3,    0.1555e-3,

    0.1013e-3,   -0.0438e-3,    0.3719e-3,    0.3166e-3,   -0.0719e-3,    0.0573e-3,   -0.0008e-3,   -0.0979e-3,   -0.1978e-3,

    0.1554e-3,    0.0091e-3,   -0.0391e-3,   -0.1201e-3,    0.1920e-3,    0.0735e-3,    0.2456e-3,   -0.0060e-3,    0.3420e-3,

    0.5391e-3,    0.2228e-3,    0.4000e-3,   -0.2743e-3,    0.0353e-3,    0.1239e-3,    0.5147e-3,    0.0797e-3,    0.0747e-3,

   -0.0718e-3,   -0.0033e-3,    0.1501e-3,    0.0283e-3,   -0.2365e-3,    0.2209e-3,   -0.0228e-3,   -0.1874e-3,   -0.0652e-3,

    0.0135e-3,    0.2893e-3,   -0.1107e-3,    0.0193e-3,   -0.1126e-3,    0.0924e-3,    0.2019e-3,   -0.0706e-3,    0.0730e-3,

   -0.0663e-3,    0.1950e-3,    0.0397e-3,    0.4680e-3,    0.0548e-3,    0.3591e-3,   -0.1657e-3,   -0.0275e-3,   -0.0086e-3,

    0.1890e-3,   -0.0261e-3,   -0.0110e-3,   -0.0252e-3,   -0.1537e-3,    0.4153e-3,   -0.1180e-3,    0.0519e-3,    0.0622e-3,

   -0.2332e-3,   -0.0734e-3,   -0.0485e-3,   -0.0738e-3,   -0.1166e-3,    0.1085e-3,   -0.1026e-3,   -0.0001e-3,    0.3823e-3,

    0.1402e-3,   -0.2094e-3,    0.1145e-3,    0.3398e-3,    0.1452e-3,    0.1888e-3,    0.0284e-3,   -0.0694e-3,   -0.0352e-3,

   -0.0447e-3,   -0.0686e-3,    0.0610e-3,    0.1862e-3,    0.0208e-3,    0.1199e-3,   -0.0359e-3,   -0.0278e-3,   -0.2046e-3,

   -0.1274e-3,   -0.0317e-3,   -0.0231e-3,    0.0130e-3,   -0.0284e-3,    0.0241e-3,    0.0240e-3,    0.0908e-3,   -0.1565e-3,

   -0.0935e-3,   -0.0122e-3,    0.1339e-3,   -0.0063e-3,    0.0028e-3,    0.0555e-3,    0.0841e-3,    0.0882e-3,    0.3552e-3,

   -0.0177e-3,    0.0358e-3,   -0.2324e-3,    0.4861e-3,    0.0839e-3,    0.2690e-3,   -0.1087e-3,   -0.0297e-3,   -0.1307e-3,

    0.5573e-3,   -0.0290e-3,    0.0682e-3,    0.0119e-3,    0.1011e-3,   -0.0783e-3,    0.1885e-3,    0.0916e-3,    0.1701e-3,

   -0.0703e-3,    0.3985e-3,    0.0344e-3,    0.0784e-3,    0.3556e-3,   -0.2251e-3,    0.0556e-3,   -0.1172e-3,    0.0197e-3,

    0.1189e-3,    0.0435e-3,   -0.1532e-3,    0.0066e-3,    0.2722e-3,   -0.1126e-3,    0.1758e-3,    0.1865e-3,   -0.1464e-3,

   -0.0352e-3,   -0.1801e-3,   -0.0197e-3,   -0.0980e-3,   -0.0253e-3,   -0.0358e-3,   -0.1002e-3,   -0.1191e-3,   -0.0983e-3,

    0.0069e-3,   -0.0328e-3,   -0.0786e-3,    0.0884e-3,   -0.0844e-3,   -0.0833e-3,    0.1741e-3,    0.1972e-3,    0.0873e-3,

   -0.0886e-3,    0.0812e-3,   -0.1316e-3,   -0.3517e-3,   -0.2928e-3,   -0.0561e-3,   -0.2060e-3,   -0.2206e-3,   -0.4161e-3,

   -0.0089e-3,   -0.2988e-3,   -0.0629e-3,    0.2036e-3,   -0.1028e-3,    0.0523e-3,    0.0540e-3,    0.4015e-3,    0.1350e-3,

    0.0235e-3,   -0.1203e-3,    0.2584e-3,   -0.1614e-3,   -0.1849e-3,   -0.0553e-3,    0.0403e-3,   -0.0624e-3,    0.2059e-3,

    0.1153e-3,    0.0158e-3,   -0.2085e-3,    0.0504e-3,   -0.1200e-3,   -0.0922e-3,    0.5190e-3,    0.1938e-3,   -0.0140e-3,

    0.0789e-3,    0.0344e-3,   -0.1431e-3,    0.0685e-3,   -0.0074e-3,    0.5169e-3,    0.2505e-3,    0.0885e-3,    0.0585e-3,

   -0.1564e-3,   -0.0493e-3,    0.1149e-3,    0.1290e-3,    0.0877e-3,   -0.0690e-3,    0.0136e-3,   -0.0349e-3,    0.0486e-3,

    0.0382e-3,   -0.1767e-3,    0.1242e-3,    0.2208e-3,    0.0417e-3,    0.0729e-3,    0.2184e-3,    0.0797e-3,   -0.0249e-3,

    0.0200e-3,   -0.2379e-3,    0.1588e-3,   -0.1772e-3,    0.0765e-3,   -0.2014e-3,    0.1963e-3,   -0.0125e-3,   -0.1062e-3,

    0.0798e-3,    0.2180e-3,    0.1036e-3,   -0.1035e-3,    0.3694e-3,    0.0435e-3,   -0.0136e-3,   -0.0365e-3,   -0.2199e-3,

    0.2568e-3,   -0.2504e-3,    0.2084e-3,   -0.1753e-3,   -0.1722e-3,    0.0097e-3,   -0.1489e-3,    0.1195e-3,   -0.1323e-3,

    0.0542e-3,   -0.2747e-3,   -0.0143e-3,    0.0622e-3,   -0.0262e-3,    0.0394e-3,    0.0763e-3,    0.1025e-3,   -0.0482e-3,

   -0.0185e-3,   -0.2050e-3,    0.3248e-3,    0.3397e-3,    0.2485e-3,    0.0471e-3,   -0.0759e-3,   -0.1714e-3,    0.0675e-3,

    0.0611e-3,   -0.0900e-3,    0.2699e-3,    0.0159e-3,   -0.1485e-3,    0.1301e-3,   -0.0859e-3,   -0.1497e-3,   -0.0523e-3,

    0.1904e-3,    0.1212e-3,   -0.0893e-3,    0.0946e-3,   -0.0201e-3,   -0.0898e-3,   -0.3157e-3,    0.0148e-3,    0.0550e-3,

    0.0127e-3,    0.0067e-3,    0.2937e-3,   -0.1762e-3,   -0.0255e-3,   -0.1732e-3,    0.1342e-3,    0.0576e-3,   -0.0429e-3,

    0.2918e-3,    0.0138e-3,   -0.1361e-3,    0.1321e-3,   -0.0068e-3,    0.0030e-3,   -0.0359e-3,    0.1854e-3,   -0.0668e-3,

   -0.0529e-3,    0.0017e-3,   -0.2299e-3,   -0.0097e-3,   -0.0317e-3,

};
