
const float layer3_weights[] = {

//val(:,:,1,1) =

   -0.0112,   -0.0007,   -0.0125,   -0.0076,   -0.0327,
    0.0017,    0.0042,    0.0030,   -0.0074,   -0.0432,
   -0.0140,    0.0192,    0.0152,    0.0161,   -0.0110,
   -0.0025,   -0.0202,    0.0104,    0.0280,   -0.0198,
    0.0070,   -0.0418,   -0.0167,    0.0232,    0.0130,


//val(:,:,2,1) =

   -0.0008,   -0.0030,   -0.0250,   -0.0053,   -0.0062,
    0.0228,    0.0017,   -0.0133,   -0.0109,   -0.0054,
   -0.0014,   -0.0018,    0.0079,   -0.0063,   -0.0172,
   -0.0087,   -0.0131,    0.0037,   -0.0030,   -0.0233,
   -0.0015,   -0.0008,    0.0103,    0.0184,    0.0002,


//val(:,:,3,1) =

   -0.0053,   -0.0025,   -0.0041,    0.0036,    0.0042,
   -0.0055,    0.0085,   -0.0024,   -0.0045,    0.0092,
    0.0078,   -0.0025,    0.0224,    0.0044,   -0.0051,
   -0.0010,    0.0002,    0.0083,    0.0169,    0.0127,
    0.0131,    0.0032,   -0.0057,   -0.0141,    0.0027,


//val(:,:,4,1) =

   -0.0194,   -0.0012,   -0.0101,   -0.0145,   -0.0023,
   -0.0237,   -0.0093,    0.0044,   -0.0055,   -0.0042,
   -0.0051,   -0.0074,   -0.0019,    0.0075,    0.0026,
    0.0030,   -0.0196,   -0.0136,    0.0039,    0.0061,
    0.0050,   -0.0079,   -0.0086,    0.0045,    0.0125,


//val(:,:,5,1) =

    0.0015,   -0.0119,    0.0014,   -0.0091,    0.0067,
    0.0169,    0.0002,   -0.0038,    0.0054,    0.0009,
    0.0043,    0.0091,   -0.0119,   -0.0042,    0.0057,
   -0.0027,    0.0073,    0.0046,    0.0009,    0.0038,
    0.0157,    0.0194,   -0.0059,    0.0188,   -0.0142,


//val(:,:,6,1) =

   -0.0024,   -0.0060,   -0.0086,   -0.0041,    0.0084,
    0.0079,   -0.0090,   -0.0159,   -0.0258,    0.0063,
    0.0040,   -0.0216,   -0.0360,   -0.0310,    0.0033,
    0.0089,   -0.0032,   -0.0420,   -0.0225,    0.0016,
   -0.0142,   -0.0052,   -0.0194,   -0.0345,   -0.0116,


//val(:,:,7,1) =

   -0.0120,   -0.0136,    0.0248,    0.0091,    0.0120,
   -0.0020,   -0.0066,   -0.0282,   -0.0022,   -0.0050,
    0.0074,   -0.0044,   -0.0119,   -0.0113,    0.0079,
    0.0198,   -0.0080,   -0.0254,    0.0026,    0.0094,
    0.0005,   -0.0099,   -0.0147,   -0.0049,    0.0236,


//val(:,:,8,1) =

    0.0120,   -0.0067,   -0.0134,   -0.0106,   -0.0188,
    0.0105,   -0.0021,   -0.0006,    0.0084,    0.0020,
    0.0034,    0.0133,    0.0069,   -0.0064,   -0.0008,
   -0.0145,    0.0012,    0.0036,   -0.0036,   -0.0026,
   -0.0086,   -0.0110,    0.0145,   -0.0023,   -0.0121,


//val(:,:,9,1) =

    0.0168,    0.0030,   -0.0154,    0.0066,    0.0037,
    0.0013,    0.0034,   -0.0015,    0.0023,    0.0039,
    0.0105,   -0.0126,   -0.0090,   -0.0051,    0.0046,
   -0.0012,   -0.0143,   -0.0067,    0.0054,   -0.0086,
   -0.0019,   -0.0096,   -0.0114,   -0.0086,    0.0034,


//val(:,:,10,1) =

   -0.0044,   -0.0011,   -0.0124,    0.0013,    0.0035,
   -0.0107,   -0.0182,   -0.0188,   -0.0081,    0.0048,
   -0.0133,   -0.0079,   -0.0111,   -0.0286,    0.0019,
    0.0104,   -0.0344,   -0.0149,   -0.0189,   -0.0078,
   -0.0097,   -0.0150,    0.0113,   -0.0264,   -0.0200,


//val(:,:,11,1) =

    0.0174,   -0.0031,    0.0091,    0.0149,   -0.0102,
    0.0225,   -0.0100,    0.0006,   -0.0099,    0.0011,
   -0.0015,    0.0043,   -0.0044,    0.0044,   -0.0042,
   -0.0044,   -0.0154,   -0.0051,   -0.0019,    0.0047,
    0.0172,   -0.0184,    0.0032,   -0.0172,   -0.0040,


//val(:,:,12,1) =

   -0.0149,    0.0094,    0.0304,   -0.0093,    0.0101,
    0.0016,   -0.0112,    0.0064,    0.0093,    0.0142,
    0.0017,   -0.0113,   -0.0134,   -0.0044,   -0.0091,
    0.0155,   -0.0108,   -0.0020,    0.0032,    0.0117,
    0.0092,    0.0095,   -0.0151,    0.0078,    0.0169,


//val(:,:,13,1) =

    0.0015,    0.0025,    0.0140,    0.0047,   -0.0051,
   -0.0178,   -0.0012,   -0.0122,    0.0063,   -0.0048,
   -0.0021,   -0.0063,   -0.0018,   -0.0014,    0.0084,
   -0.0014,   -0.0054,   -0.0022,    0.0096,   -0.0074,
    0.0097,   -0.0012,   -0.0171,   -0.0045,    0.0020,


//val(:,:,14,1) =

   -0.0041,    0.0082,   -0.0027,    0.0078,   -0.0319,
   -0.0071,    0.0005,   -0.0130,   -0.0042,    0.0043,
    0.0075,    0.0064,    0.0100,   -0.0024,   -0.0030,
   -0.0079,    0.0107,   -0.0022,   -0.0073,   -0.0076,
    0.0019,   -0.0012,   -0.0091,   -0.0036,    0.0016,


//val(:,:,15,1) =

   -0.0121,   -0.0203,   -0.0084,   -0.0110,   -0.0048,
   -0.0085,   -0.0074,    0.0037,   -0.0022,   -0.0054,
    0.0102,    0.0010,   -0.0091,   -0.0057,    0.0120,
    0.0067,    0.0054,   -0.0099,    0.0023,    0.0085,
   -0.0091,    0.0003,   -0.0110,   -0.0022,    0.0045,


//val(:,:,16,1) =

   -0.0174,   -0.0016,   -0.0139,   -0.0088,   -0.0140,
   -0.0222,   -0.0178,    0.0014,    0.0189,   -0.0116,
   -0.0177,   -0.0150,   -0.0017,    0.0044,    0.0123,
    0.0293,    0.0015,   -0.0272,    0.0137,    0.0221,
    0.0141,    0.0195,   -0.0040,   -0.0085,    0.0011,


//val(:,:,17,1) =

    0.0050,   -0.0089,    0.0042,   -0.0017,    0.0210,
   -0.0061,   -0.0111,    0.0078,   -0.0162,   -0.0018,
   -0.0006,   -0.0054,   -0.0069,   -0.0105,   -0.0032,
    0.0117,   -0.0051,   -0.0068,   -0.0001,    0.0085,
   -0.0002,   -0.0112,   -0.0261,    0.0076,    0.0036,


//val(:,:,18,1) =

    0.0038,   -0.0093,    0.0070,    0.0188,    0.0009,
    0.0088,   -0.0069,    0.0236,    0.0055,   -0.0087,
   -0.0148,    0.0060,    0.0049,    0.0115,    0.0019,
    0.0040,   -0.0133,    0.0025,    0.0010,    0.0026,
    0.0053,   -0.0129,   -0.0163,    0.0125,    0.0171,


//val(:,:,19,1) =

   -0.0018,    0.0209,   -0.0072,    0.0075,   -0.0043,
   -0.0039,   -0.0090,   -0.0096,    0.0014,    0.0033,
   -0.0119,    0.0266,    0.0099,   -0.0020,   -0.0068,
   -0.0046,    0.0182,   -0.0025,   -0.0057,    0.0052,
    0.0046,   -0.0041,    0.0016,   -0.0048,    0.0002,


//val(:,:,20,1) =

    0.0037,   -0.0121,    0.0181,    0.0068,    0.0133,
   -0.0028,    0.0148,    0.0073,   -0.0074,   -0.0019,
   -0.0030,   -0.0031,   -0.0009,    0.0139,   -0.0023,
    0.0365,   -0.0155,   -0.0094,    0.0106,    0.0224,
    0.0099,    0.0230,   -0.0321,    0.0177,    0.0057,


//val(:,:,1,2) =

    0.0097,   -0.0317,   -0.0091,    0.0429,    0.0054,
   -0.0200,   -0.0327,    0.0315,    0.0352,   -0.0390,
   -0.0266,    0.0232,    0.0152,   -0.0100,   -0.0137,
   -0.0094,    0.0146,    0.0045,   -0.0206,    0.0160,
   -0.0023,   -0.0126,   -0.0106,   -0.0135,   -0.0097,


//val(:,:,2,2) =

    0.0041,    0.0052,   -0.0113,   -0.0191,   -0.0190,
    0.0255,    0.0047,   -0.0135,   -0.0242,    0.0008,
   -0.0184,   -0.0334,   -0.0226,   -0.0087,    0.0155,
   -0.0069,    0.0126,    0.0214,   -0.0135,   -0.0155,
   -0.0200,   -0.0147,    0.0293,   -0.0097,   -0.0016,


//val(:,:,3,2) =

    0.0068,   -0.0114,    0.0113,    0.0158,    0.0065,
    0.0029,    0.0129,    0.0144,    0.0058,   -0.0039,
    0.0082,    0.0132,    0.0068,   -0.0022,    0.0285,
    0.0137,   -0.0011,    0.0037,   -0.0067,   -0.0003,
    0.0105,    0.0034,    0.0018,    0.0028,   -0.0069,


//val(:,:,4,2) =

   -0.0081,    0.0024,   -0.0064,    0.0089,    0.0276,
   -0.0015,    0.0016,    0.0092,    0.0252,    0.0170,
   -0.0137,    0.0105,    0.0019,    0.0006,   -0.0259,
    0.0009,   -0.0144,    0.0006,   -0.0216,   -0.0159,
    0.0122,    0.0022,    0.0043,   -0.0007,   -0.0164,


//val(:,:,5,2) =

   -0.0072,   -0.0010,   -0.0218,   -0.0078,    0.0163,
   -0.0090,    0.0018,    0.0009,    0.0049,   -0.0123,
    0.0030,   -0.0161,    0.0115,    0.0174,   -0.0106,
   -0.0123,   -0.0004,    0.0002,    0.0008,    0.0155,
   -0.0119,    0.0028,   -0.0200,   -0.0004,    0.0168,


//val(:,:,6,2) =

   -0.0040,   -0.0002,   -0.0083,   -0.0307,   -0.0083,
    0.0051,    0.0019,   -0.0255,   -0.0103,    0.0149,
   -0.0078,   -0.0031,   -0.0215,   -0.0040,    0.0196,
    0.0048,   -0.0232,   -0.0028,   -0.0004,   -0.0061,
   -0.0128,   -0.0007,   -0.0111,   -0.0120,   -0.0004,


//val(:,:,7,2) =

   -0.0276,   -0.0049,   -0.0133,   -0.0161,   -0.0072,
   -0.0106,   -0.0009,   -0.0166,   -0.0125,   -0.0093,
    0.0018,   -0.0044,   -0.0196,   -0.0129,    0.0101,
   -0.0100,   -0.0087,   -0.0070,    0.0137,   -0.0032,
   -0.0166,   -0.0136,    0.0180,   -0.0137,   -0.0101,


//val(:,:,8,2) =

    0.0194,   -0.0034,   -0.0089,   -0.0069,   -0.0153,
   -0.0068,   -0.0167,   -0.0050,   -0.0141,   -0.0161,
   -0.0067,   -0.0017,   -0.0036,   -0.0126,   -0.0142,
    0.0195,   -0.0006,   -0.0310,   -0.0255,   -0.0060,
   -0.0141,    0.0060,   -0.0170,   -0.0070,   -0.0042,


//val(:,:,9,2) =

    0.0114,   -0.0051,    0.0012,    0.0052,    0.0166,
   -0.0083,    0.0064,   -0.0182,    0.0069,    0.0139,
    0.0181,    0.0081,   -0.0091,    0.0248,   -0.0031,
   -0.0024,    0.0012,   -0.0151,    0.0036,    0.0009,
   -0.0127,    0.0019,   -0.0003,   -0.0209,    0.0053,


//val(:,:,10,2) =

   -0.0038,   -0.0108,   -0.0077,   -0.0013,    0.0034,
    0.0019,    0.0208,    0.0056,   -0.0251,    0.0148,
    0.0034,    0.0080,   -0.0076,   -0.0147,    0.0076,
    0.0056,    0.0039,   -0.0023,   -0.0039,    0.0097,
    0.0031,   -0.0163,    0.0015,   -0.0127,    0.0042,


//val(:,:,11,2) =

   -0.0024,   -0.0098,    0.0166,    0.0167,   -0.0212,
   -0.0012,   -0.0006,    0.0083,    0.0116,   -0.0116,
    0.0128,    0.0149,    0.0231,   -0.0079,    0.0108,
    0.0095,    0.0014,   -0.0163,   -0.0062,    0.0183,
    0.0114,   -0.0139,   -0.0003,    0.0035,    0.0082,


//val(:,:,12,2) =

    0.0002,    0.0003,    0.0097,   -0.0043,   -0.0085,
    0.0080,   -0.0046,   -0.0097,   -0.0025,    0.0030,
   -0.0058,   -0.0126,   -0.0014,    0.0243,   -0.0002,
    0.0015,    0.0030,   -0.0110,    0.0090,   -0.0193,
    0.0157,    0.0163,    0.0112,    0.0050,   -0.0064,


//val(:,:,13,2) =

    0.0009,   -0.0025,   -0.0038,    0.0106,    0.0106,
    0.0084,    0.0013,   -0.0088,    0.0045,   -0.0012,
   -0.0070,    0.0003,    0.0094,    0.0212,   -0.0045,
    0.0097,    0.0140,    0.0167,    0.0041,   -0.0152,
    0.0180,    0.0134,    0.0130,   -0.0061,   -0.0084,


//val(:,:,14,2) =

   -0.0033,    0.0022,   -0.0078,   -0.0186,   -0.0048,
    0.0022,    0.0092,   -0.0265,   -0.0162,    0.0015,
   -0.0047,    0.0006,   -0.0353,   -0.0079,    0.0217,
   -0.0020,   -0.0041,   -0.0222,   -0.0127,    0.0020,
   -0.0021,    0.0047,   -0.0016,   -0.0038,    0.0033,


//val(:,:,15,2) =

   -0.0096,    0.0044,    0.0033,   -0.0015,   -0.0041,
   -0.0022,   -0.0051,   -0.0268,    0.0030,    0.0033,
    0.0001,    0.0044,   -0.0083,    0.0135,    0.0113,
   -0.0172,    0.0074,    0.0109,    0.0051,    0.0013,
   -0.0034,    0.0130,    0.0036,   -0.0074,    0.0011,


//val(:,:,16,2) =

    0.0028,    0.0022,   -0.0116,    0.0012,    0.0053,
    0.0013,    0.0178,   -0.0048,    0.0322,    0.0202,
    0.0066,   -0.0039,    0.0109,    0.0439,    0.0039,
    0.0012,    0.0209,    0.0195,    0.0210,   -0.0162,
   -0.0102,    0.0241,    0.0114,    0.0049,   -0.0239,


//val(:,:,17,2) =

   -0.0187,    0.0030,    0.0083,    0.0050,    0.0077,
    0.0065,    0.0023,   -0.0014,   -0.0056,   -0.0095,
   -0.0058,   -0.0063,   -0.0219,   -0.0017,    0.0072,
    0.0203,   -0.0017,   -0.0303,    0.0064,   -0.0044,
   -0.0226,   -0.0129,   -0.0064,   -0.0153,   -0.0043,


//val(:,:,18,2) =

   -0.0170,    0.0026,    0.0026,    0.0048,   -0.0007,
    0.0131,   -0.0150,   -0.0243,   -0.0074,    0.0012,
    0.0027,   -0.0211,   -0.0015,   -0.0058,   -0.0006,
    0.0184,   -0.0103,    0.0037,    0.0239,    0.0028,
    0.0098,   -0.0057,   -0.0044,    0.0098,    0.0039,


//val(:,:,19,2) =

   -0.0114,   -0.0140,    0.0085,   -0.0191,   -0.0245,
   -0.0105,    0.0081,    0.0086,   -0.0127,    0.0001,
    0.0109,    0.0101,   -0.0054,   -0.0184,    0.0191,
    0.0264,    0.0080,   -0.0216,   -0.0130,    0.0022,
    0.0021,    0.0046,   -0.0083,   -0.0074,    0.0100,


//val(:,:,20,2) =

   -0.0169,   -0.0183,    0.0070,   -0.0065,   -0.0293,
   -0.0150,   -0.0186,    0.0025,   -0.0308,    0.0104,
   -0.0200,   -0.0182,   -0.0162,   -0.0250,    0.0028,
   -0.0086,   -0.0355,   -0.0064,    0.0030,    0.0025,
   -0.0251,   -0.0053,   -0.0082,   -0.0109,    0.0002,


//val(:,:,1,3) =

   -0.0257,   -0.0314,    0.0278,    0.0455,    0.0337,
    0.0083,    0.0249,    0.0293,   -0.0005,   -0.0259,
    0.0121,   -0.0038,   -0.0336,   -0.0399,   -0.0101,
   -0.0190,   -0.0313,   -0.0250,   -0.0110,   -0.0036,
   -0.0244,    0.0001,   -0.0169,   -0.0106,   -0.0155,


//val(:,:,2,3) =

   -0.0094,   -0.0091,   -0.0075,   -0.0165,    0.0122,
   -0.0128,   -0.0052,    0.0323,    0.0118,    0.0104,
    0.0040,    0.0102,    0.0497,    0.0025,   -0.0069,
    0.0074,    0.0015,    0.0131,    0.0009,   -0.0103,
    0.0004,   -0.0149,    0.0083,    0.0065,    0.0114,


//val(:,:,3,3) =

    0.0011,    0.0054,    0.0228,    0.0174,    0.0117,
    0.0041,    0.0116,    0.0067,   -0.0084,    0.0157,
    0.0032,   -0.0224,   -0.0016,    0.0172,   -0.0089,
   -0.0018,   -0.0161,   -0.0099,    0.0240,    0.0005,
   -0.0160,   -0.0103,   -0.0206,   -0.0035,    0.0019,


//val(:,:,4,3) =

    0.0063,   -0.0013,   -0.0024,    0.0158,    0.0109,
    0.0057,   -0.0210,    0.0282,    0.0089,   -0.0049,
    0.0086,   -0.0031,   -0.0018,   -0.0174,   -0.0069,
   -0.0004,    0.0037,   -0.0202,   -0.0242,   -0.0140,
   -0.0133,   -0.0127,   -0.0128,   -0.0095,   -0.0011,


//val(:,:,5,3) =

   -0.0166,    0.0108,    0.0095,    0.0167,    0.0099,
    0.0001,   -0.0001,    0.0327,    0.0080,   -0.0216,
    0.0171,    0.0201,    0.0190,    0.0221,   -0.0093,
   -0.0035,    0.0085,    0.0018,    0.0053,    0.0064,
   -0.0041,   -0.0080,   -0.0074,    0.0051,    0.0208,


//val(:,:,6,3) =

    0.0056,   -0.0032,   -0.0202,   -0.0071,   -0.0327,
   -0.0054,    0.0093,   -0.0124,   -0.0089,   -0.0192,
   -0.0127,   -0.0279,   -0.0110,    0.0008,   -0.0109,
    0.0022,   -0.0080,    0.0070,    0.0019,   -0.0072,
   -0.0001,   -0.0039,    0.0046,   -0.0105,    0.0081,


//val(:,:,7,3) =

    0.0062,    0.0046,    0.0176,   -0.0047,   -0.0164,
   -0.0007,    0.0016,   -0.0101,   -0.0056,   -0.0087,
   -0.0089,   -0.0169,    0.0014,    0.0007,   -0.0152,
    0.0173,    0.0126,   -0.0033,    0.0159,    0.0047,
    0.0264,    0.0035,    0.0126,   -0.0005,    0.0014,


//val(:,:,8,3) =

   -0.0161,   -0.0151,    0.0085,   -0.0101,   -0.0015,
   -0.0242,   -0.0212,   -0.0143,    0.0048,   -0.0039,
   -0.0011,    0.0134,    0.0037,    0.0273,   -0.0061,
    0.0139,    0.0026,    0.0052,   -0.0193,   -0.0029,
    0.0014,   -0.0090,    0.0077,    0.0041,    0.0169,


//val(:,:,9,3) =

   -0.0068,   -0.0014,   -0.0121,    0.0085,   -0.0100,
    0.0037,    0.0059,    0.0025,   -0.0177,   -0.0003,
   -0.0026,    0.0027,    0.0163,    0.0087,    0.0004,
    0.0186,    0.0103,   -0.0106,    0.0057,    0.0049,
    0.0034,   -0.0044,   -0.0035,    0.0011,    0.0054,


//val(:,:,10,3) =

   -0.0038,    0.0110,   -0.0100,    0.0018,   -0.0122,
    0.0167,    0.0057,   -0.0027,   -0.0152,   -0.0200,
   -0.0043,   -0.0002,   -0.0134,   -0.0006,   -0.0023,
   -0.0096,   -0.0062,    0.0009,    0.0138,   -0.0122,
    0.0013,    0.0163,    0.0208,   -0.0079,   -0.0130,


//val(:,:,11,3) =

    0.0018,    0.0028,    0.0335,    0.0279,   -0.0003,
   -0.0022,    0.0314,    0.0170,    0.0113,   -0.0036,
   -0.0040,    0.0008,    0.0123,    0.0076,    0.0085,
   -0.0196,   -0.0014,    0.0059,    0.0197,    0.0075,
   -0.0211,   -0.0108,   -0.0010,    0.0170,    0.0070,


//val(:,:,12,3) =

   -0.0045,   -0.0179,   -0.0225,   -0.0084,   -0.0052,
    0.0018,   -0.0190,    0.0117,   -0.0192,   -0.0161,
    0.0033,   -0.0226,    0.0028,   -0.0093,   -0.0101,
   -0.0033,   -0.0106,   -0.0230,    0.0066,   -0.0104,
   -0.0040,   -0.0000,   -0.0146,   -0.0050,    0.0037,


//val(:,:,13,3) =

   -0.0049,   -0.0104,   -0.0104,   -0.0006,    0.0052,
    0.0099,   -0.0140,    0.0043,    0.0006,   -0.0008,
    0.0073,   -0.0036,    0.0075,    0.0010,   -0.0107,
    0.0008,    0.0009,   -0.0215,   -0.0137,    0.0065,
   -0.0141,   -0.0062,   -0.0014,   -0.0155,   -0.0144,


//val(:,:,14,3) =

   -0.0105,    0.0104,    0.0024,    0.0028,    0.0052,
   -0.0323,   -0.0040,   -0.0190,    0.0043,    0.0070,
    0.0053,    0.0007,    0.0008,   -0.0072,    0.0081,
   -0.0041,   -0.0061,    0.0103,   -0.0158,   -0.0176,
   -0.0016,   -0.0068,   -0.0135,    0.0042,    0.0039,


//val(:,:,15,3) =

   -0.0059,    0.0122,    0.0127,    0.0019,    0.0024,
   -0.0044,    0.0166,    0.0078,    0.0303,    0.0090,
   -0.0160,   -0.0109,    0.0115,    0.0169,   -0.0069,
    0.0116,    0.0087,   -0.0030,    0.0231,    0.0113,
   -0.0011,   -0.0006,   -0.0029,    0.0022,    0.0004,


//val(:,:,16,3) =

   -0.0127,   -0.0100,   -0.0012,    0.0000,    0.0122,
    0.0097,   -0.0174,   -0.0189,    0.0030,   -0.0052,
   -0.0222,   -0.0056,   -0.0016,    0.0078,   -0.0179,
   -0.0239,   -0.0080,   -0.0225,   -0.0067,   -0.0007,
   -0.0160,   -0.0089,   -0.0132,    0.0013,   -0.0039,


//val(:,:,17,3) =

    0.0141,   -0.0037,    0.0103,    0.0037,   -0.0128,
    0.0131,   -0.0002,    0.0113,   -0.0010,   -0.0064,
   -0.0017,   -0.0094,   -0.0142,    0.0123,   -0.0211,
   -0.0041,    0.0002,    0.0029,    0.0138,   -0.0060,
    0.0069,    0.0117,   -0.0067,    0.0054,   -0.0170,


//val(:,:,18,3) =

    0.0090,    0.0121,   -0.0014,   -0.0085,    0.0071,
    0.0110,    0.0151,    0.0084,   -0.0025,    0.0141,
    0.0090,   -0.0035,    0.0103,    0.0064,   -0.0155,
   -0.0029,    0.0009,   -0.0148,   -0.0024,   -0.0218,
   -0.0024,   -0.0103,    0.0048,   -0.0036,   -0.0084,


//val(:,:,19,3) =

   -0.0124,   -0.0081,   -0.0107,    0.0006,   -0.0090,
   -0.0094,    0.0126,   -0.0116,    0.0015,   -0.0034,
   -0.0041,   -0.0163,   -0.0204,   -0.0154,   -0.0061,
   -0.0267,   -0.0133,   -0.0120,    0.0095,   -0.0011,
    0.0075,   -0.0248,    0.0139,   -0.0215,   -0.0015,


//val(:,:,20,3) =

    0.0031,    0.0012,    0.0356,    0.0048,    0.0158,
    0.0146,    0.0114,   -0.0066,   -0.0096,    0.0062,
    0.0085,    0.0055,    0.0130,    0.0019,   -0.0220,
   -0.0021,   -0.0019,    0.0125,    0.0110,   -0.0081,
   -0.0103,    0.0004,   -0.0052,   -0.0200,    0.0053,


//val(:,:,1,4) =

    0.0123,    0.0026,   -0.0197,   -0.0359,   -0.0093,
    0.0005,   -0.0255,   -0.0009,    0.0229,    0.0087,
   -0.0027,    0.0100,   -0.0066,    0.0115,   -0.0583,
   -0.0191,   -0.0169,   -0.0273,   -0.0382,   -0.0043,
   -0.0165,   -0.0109,    0.0082,    0.0416,    0.0343,


//val(:,:,2,4) =

   -0.0154,    0.0129,    0.0234,    0.0063,   -0.0117,
    0.0038,   -0.0055,    0.0170,    0.0135,    0.0145,
   -0.0022,   -0.0118,    0.0023,    0.0173,    0.0332,
   -0.0031,    0.0082,    0.0138,    0.0222,   -0.0136,
    0.0124,   -0.0102,   -0.0140,   -0.0041,   -0.0019,


//val(:,:,3,4) =

    0.0256,    0.0071,    0.0105,    0.0225,    0.0007,
   -0.0075,   -0.0251,    0.0227,    0.0165,   -0.0030,
    0.0099,    0.0002,    0.0111,   -0.0246,   -0.0013,
    0.0043,   -0.0006,   -0.0024,    0.0146,   -0.0025,
    0.0130,    0.0058,   -0.0039,    0.0111,   -0.0149,


//val(:,:,4,4) =

   -0.0008,   -0.0151,    0.0096,   -0.0107,   -0.0014,
   -0.0030,    0.0117,   -0.0253,   -0.0034,    0.0106,
   -0.0027,   -0.0055,    0.0172,    0.0108,   -0.0039,
   -0.0197,    0.0101,    0.0165,   -0.0189,   -0.0267,
   -0.0101,   -0.0022,   -0.0278,    0.0038,    0.0062,


//val(:,:,5,4) =

   -0.0094,    0.0151,    0.0059,   -0.0185,   -0.0201,
   -0.0078,    0.0134,    0.0154,    0.0132,    0.0152,
   -0.0012,    0.0053,    0.0311,    0.0273,    0.0065,
    0.0045,    0.0043,    0.0111,   -0.0109,    0.0086,
    0.0017,   -0.0116,   -0.0104,   -0.0065,   -0.0033,


//val(:,:,6,4) =

    0.0067,   -0.0177,   -0.0006,   -0.0031,   -0.0196,
   -0.0094,    0.0054,   -0.0154,   -0.0329,   -0.0167,
   -0.0031,   -0.0148,   -0.0070,    0.0048,    0.0151,
   -0.0011,   -0.0200,   -0.0015,    0.0082,    0.0129,
    0.0117,   -0.0110,   -0.0053,    0.0006,   -0.0177,


//val(:,:,7,4) =

   -0.0142,   -0.0075,   -0.0154,   -0.0121,   -0.0007,
   -0.0197,    0.0246,    0.0135,    0.0182,    0.0059,
    0.0047,    0.0086,    0.0133,   -0.0005,    0.0081,
    0.0031,   -0.0010,    0.0183,    0.0032,    0.0131,
    0.0032,    0.0017,    0.0015,    0.0011,    0.0014,


//val(:,:,8,4) =

   -0.0127,   -0.0027,    0.0076,   -0.0077,    0.0017,
    0.0122,   -0.0098,   -0.0080,   -0.0075,    0.0043,
    0.0052,    0.0005,   -0.0052,    0.0104,    0.0141,
   -0.0031,    0.0176,   -0.0033,   -0.0092,    0.0046,
    0.0046,    0.0235,   -0.0123,   -0.0015,    0.0115,


//val(:,:,9,4) =

   -0.0013,    0.0250,   -0.0186,    0.0012,    0.0069,
   -0.0001,   -0.0032,   -0.0058,    0.0083,   -0.0013,
    0.0159,   -0.0057,    0.0058,   -0.0120,    0.0087,
   -0.0231,   -0.0102,    0.0011,    0.0026,   -0.0056,
   -0.0056,    0.0044,    0.0034,   -0.0164,    0.0018,


//val(:,:,10,4) =

    0.0105,    0.0030,   -0.0136,   -0.0065,    0.0029,
   -0.0225,   -0.0156,   -0.0133,   -0.0099,   -0.0169,
   -0.0182,    0.0128,    0.0092,   -0.0074,   -0.0098,
   -0.0199,   -0.0030,   -0.0111,    0.0098,    0.0152,
    0.0069,   -0.0145,   -0.0066,    0.0066,   -0.0124,


//val(:,:,11,4) =

   -0.0066,    0.0056,   -0.0119,   -0.0016,    0.0117,
   -0.0153,   -0.0037,    0.0092,    0.0273,   -0.0073,
    0.0112,    0.0050,    0.0211,   -0.0146,    0.0155,
    0.0082,    0.0021,    0.0001,    0.0142,    0.0158,
   -0.0212,    0.0074,    0.0219,    0.0275,    0.0097,


//val(:,:,12,4) =

   -0.0094,    0.0141,    0.0179,    0.0054,   -0.0080,
   -0.0010,   -0.0134,    0.0040,   -0.0068,   -0.0025,
    0.0028,   -0.0020,   -0.0050,    0.0180,   -0.0080,
   -0.0014,   -0.0240,   -0.0073,   -0.0066,   -0.0102,
    0.0008,   -0.0020,   -0.0007,   -0.0244,    0.0155,


//val(:,:,13,4) =

   -0.0115,    0.0052,   -0.0159,    0.0107,    0.0026,
   -0.0051,   -0.0091,    0.0144,   -0.0109,    0.0053,
   -0.0103,   -0.0079,   -0.0122,    0.0004,   -0.0105,
   -0.0066,   -0.0062,    0.0040,   -0.0036,   -0.0100,
   -0.0092,    0.0090,    0.0055,   -0.0090,    0.0316,


//val(:,:,14,4) =

   -0.0041,    0.0024,    0.0064,   -0.0147,   -0.0039,
    0.0093,   -0.0075,    0.0019,    0.0071,    0.0001,
   -0.0036,   -0.0209,    0.0029,    0.0064,    0.0124,
   -0.0051,    0.0032,    0.0127,   -0.0089,    0.0067,
    0.0003,   -0.0044,   -0.0179,    0.0055,    0.0091,


//val(:,:,15,4) =

    0.0011,   -0.0083,   -0.0126,    0.0258,   -0.0030,
   -0.0168,    0.0203,    0.0099,   -0.0026,    0.0163,
    0.0104,   -0.0034,    0.0030,   -0.0013,    0.0034,
   -0.0103,   -0.0120,    0.0035,   -0.0010,   -0.0051,
    0.0130,    0.0120,    0.0003,   -0.0074,   -0.0075,


//val(:,:,16,4) =

    0.0101,   -0.0196,    0.0067,   -0.0006,   -0.0097,
   -0.0098,    0.0123,    0.0129,   -0.0149,   -0.0037,
    0.0052,    0.0062,   -0.0103,    0.0029,    0.0139,
   -0.0173,   -0.0106,    0.0159,    0.0155,   -0.0195,
   -0.0018,    0.0023,   -0.0060,   -0.0121,   -0.0062,


//val(:,:,17,4) =

    0.0101,    0.0012,    0.0035,    0.0008,   -0.0064,
   -0.0017,   -0.0080,   -0.0155,   -0.0101,   -0.0033,
   -0.0040,    0.0039,    0.0102,   -0.0331,   -0.0089,
   -0.0083,   -0.0166,   -0.0082,    0.0091,    0.0118,
   -0.0152,    0.0127,    0.0055,   -0.0013,   -0.0019,


//val(:,:,18,4) =

   -0.0063,   -0.0062,   -0.0030,    0.0017,    0.0100,
    0.0089,    0.0039,    0.0038,    0.0094,    0.0196,
   -0.0001,    0.0110,    0.0284,   -0.0070,    0.0149,
    0.0168,    0.0083,    0.0067,    0.0014,    0.0122,
   -0.0067,   -0.0070,   -0.0015,    0.0094,   -0.0173,


//val(:,:,19,4) =

   -0.0186,   -0.0013,   -0.0016,    0.0052,   -0.0091,
   -0.0094,   -0.0068,   -0.0114,   -0.0003,   -0.0296,
   -0.0138,   -0.0082,   -0.0068,   -0.0225,   -0.0050,
   -0.0018,   -0.0129,   -0.0089,   -0.0092,    0.0066,
    0.0009,    0.0058,   -0.0047,    0.0019,   -0.0012,


//val(:,:,20,4) =

    0.0072,   -0.0043,   -0.0150,    0.0272,    0.0122,
   -0.0121,    0.0044,    0.0269,    0.0166,    0.0228,
    0.0086,    0.0105,    0.0041,   -0.0259,   -0.0049,
   -0.0036,   -0.0243,    0.0068,    0.0124,   -0.0102,
    0.0074,   -0.0031,    0.0168,    0.0182,    0.0023,


//val(:,:,1,5) =

   -0.0200,   -0.0061,    0.0028,   -0.0164,   -0.0143,
    0.0149,   -0.0071,   -0.0222,    0.0033,    0.0030,
    0.0003,   -0.0268,   -0.0388,   -0.0265,    0.0048,
   -0.0261,   -0.0414,   -0.0008,    0.0012,   -0.0066,
   -0.0045,    0.0232,    0.0088,   -0.0115,   -0.0063,


//val(:,:,2,5) =

   -0.0033,    0.0151,    0.0258,    0.0094,   -0.0064,
   -0.0127,   -0.0229,   -0.0086,    0.0074,    0.0043,
    0.0213,    0.0309,    0.0090,    0.0219,    0.0087,
   -0.0046,   -0.0094,    0.0281,    0.0113,    0.0270,
   -0.0041,    0.0080,   -0.0030,   -0.0101,    0.0072,


//val(:,:,3,5) =

    0.0027,    0.0009,    0.0066,    0.0091,    0.0038,
   -0.0083,   -0.0139,   -0.0063,   -0.0107,   -0.0055,
   -0.0171,    0.0055,   -0.0119,    0.0124,   -0.0169,
    0.0052,   -0.0150,   -0.0006,    0.0263,    0.0204,
    0.0025,    0.0209,    0.0038,   -0.0022,    0.0096,


//val(:,:,4,5) =

   -0.0140,   -0.0018,   -0.0060,   -0.0021,   -0.0033,
    0.0021,   -0.0027,   -0.0035,   -0.0147,    0.0158,
   -0.0015,   -0.0088,   -0.0201,   -0.0103,    0.0084,
   -0.0204,   -0.0169,   -0.0011,   -0.0005,    0.0084,
   -0.0353,   -0.0136,    0.0039,   -0.0067,    0.0197,


//val(:,:,5,5) =

    0.0106,    0.0230,   -0.0026,   -0.0044,    0.0006,
   -0.0032,    0.0037,   -0.0025,    0.0116,    0.0087,
    0.0245,    0.0022,   -0.0035,    0.0060,    0.0179,
   -0.0107,   -0.0028,   -0.0084,    0.0159,    0.0014,
   -0.0114,   -0.0025,    0.0025,    0.0000,    0.0214,


//val(:,:,6,5) =

    0.0021,   -0.0005,   -0.0171,   -0.0039,   -0.0043,
   -0.0046,   -0.0088,   -0.0073,   -0.0208,   -0.0200,
    0.0214,    0.0031,    0.0036,   -0.0152,   -0.0188,
    0.0260,    0.0250,   -0.0150,   -0.0054,    0.0057,
    0.0120,   -0.0284,    0.0007,    0.0184,    0.0096,


//val(:,:,7,5) =

    0.0047,   -0.0143,   -0.0031,   -0.0116,    0.0116,
    0.0052,    0.0141,    0.0075,   -0.0161,   -0.0149,
   -0.0171,    0.0235,    0.0003,    0.0140,   -0.0048,
    0.0086,   -0.0057,    0.0060,    0.0061,    0.0105,
    0.0101,   -0.0177,    0.0002,   -0.0071,   -0.0078,


//val(:,:,8,5) =

   -0.0032,    0.0027,    0.0111,    0.0093,   -0.0135,
   -0.0070,   -0.0044,    0.0040,    0.0114,    0.0090,
    0.0246,    0.0160,    0.0142,    0.0252,    0.0030,
    0.0049,   -0.0059,    0.0059,   -0.0086,    0.0004,
   -0.0078,   -0.0120,    0.0055,   -0.0037,   -0.0151,


//val(:,:,9,5) =

    0.0015,   -0.0033,   -0.0052,   -0.0144,    0.0053,
   -0.0037,   -0.0147,    0.0032,   -0.0105,    0.0026,
   -0.0095,    0.0008,    0.0117,    0.0079,    0.0089,
   -0.0107,    0.0055,   -0.0046,   -0.0012,    0.0150,
   -0.0082,   -0.0044,   -0.0046,    0.0076,    0.0071,


//val(:,:,10,5) =

    0.0015,   -0.0170,   -0.0061,   -0.0339,   -0.0153,
   -0.0051,    0.0018,   -0.0061,   -0.0083,   -0.0006,
   -0.0187,   -0.0011,   -0.0026,   -0.0020,   -0.0072,
    0.0042,    0.0092,    0.0118,    0.0081,    0.0019,
    0.0124,    0.0071,   -0.0026,    0.0177,    0.0028,


//val(:,:,11,5) =

   -0.0022,    0.0039,    0.0082,    0.0083,   -0.0039,
    0.0060,   -0.0023,    0.0081,   -0.0128,   -0.0049,
   -0.0091,    0.0060,   -0.0110,    0.0150,    0.0007,
   -0.0069,   -0.0040,    0.0115,    0.0099,    0.0010,
   -0.0026,    0.0038,    0.0187,    0.0084,    0.0278,


//val(:,:,12,5) =

    0.0008,    0.0063,   -0.0075,    0.0136,   -0.0170,
   -0.0031,    0.0023,   -0.0053,   -0.0048,   -0.0128,
   -0.0038,    0.0105,    0.0131,   -0.0004,    0.0077,
   -0.0060,   -0.0027,    0.0089,   -0.0110,    0.0020,
    0.0173,   -0.0067,    0.0006,    0.0032,   -0.0072,


//val(:,:,13,5) =

   -0.0105,   -0.0178,   -0.0118,    0.0187,   -0.0042,
    0.0012,    0.0025,    0.0148,   -0.0066,    0.0168,
   -0.0045,   -0.0183,    0.0133,    0.0102,    0.0038,
   -0.0217,   -0.0025,   -0.0131,    0.0065,   -0.0080,
   -0.0159,   -0.0136,    0.0020,    0.0014,    0.0026,


//val(:,:,14,5) =

   -0.0086,    0.0059,    0.0132,   -0.0070,   -0.0051,
   -0.0051,   -0.0086,   -0.0046,    0.0004,    0.0067,
    0.0194,    0.0224,    0.0046,    0.0008,    0.0063,
    0.0060,   -0.0186,    0.0040,    0.0000,   -0.0021,
   -0.0086,   -0.0092,    0.0078,    0.0021,    0.0043,


//val(:,:,15,5) =

    0.0077,   -0.0000,    0.0071,    0.0176,    0.0042,
    0.0073,   -0.0073,    0.0181,    0.0050,   -0.0200,
    0.0062,   -0.0006,   -0.0138,   -0.0044,    0.0085,
   -0.0001,    0.0112,   -0.0008,    0.0058,   -0.0318,
   -0.0074,    0.0115,    0.0002,    0.0071,   -0.0009,


//val(:,:,16,5) =

   -0.0241,    0.0047,   -0.0256,   -0.0047,   -0.0102,
   -0.0094,   -0.0036,    0.0014,   -0.0124,    0.0003,
    0.0108,   -0.0051,   -0.0028,    0.0068,   -0.0097,
   -0.0091,   -0.0115,   -0.0013,    0.0080,    0.0011,
    0.0121,   -0.0078,    0.0169,   -0.0049,   -0.0084,


//val(:,:,17,5) =

   -0.0095,   -0.0013,   -0.0250,   -0.0214,    0.0212,
    0.0074,   -0.0104,    0.0045,    0.0070,    0.0197,
   -0.0035,    0.0035,   -0.0003,   -0.0073,   -0.0173,
    0.0184,    0.0174,    0.0063,   -0.0029,   -0.0033,
   -0.0060,    0.0106,   -0.0069,    0.0045,    0.0104,


//val(:,:,18,5) =

   -0.0222,   -0.0158,    0.0100,    0.0052,    0.0014,
    0.0156,    0.0269,    0.0057,   -0.0123,    0.0059,
   -0.0035,    0.0061,   -0.0206,   -0.0079,    0.0025,
    0.0074,   -0.0054,   -0.0132,   -0.0077,   -0.0106,
   -0.0131,   -0.0130,    0.0323,    0.0120,    0.0092,


//val(:,:,19,5) =

   -0.0036,   -0.0017,    0.0005,   -0.0054,   -0.0028,
   -0.0119,    0.0138,   -0.0153,   -0.0147,    0.0019,
   -0.0064,   -0.0003,    0.0149,    0.0049,   -0.0151,
    0.0021,   -0.0058,    0.0001,   -0.0032,   -0.0088,
    0.0034,   -0.0074,   -0.0189,   -0.0002,    0.0022,


//val(:,:,20,5) =

   -0.0083,   -0.0158,    0.0108,   -0.0042,   -0.0003,
    0.0101,    0.0033,   -0.0078,   -0.0060,    0.0119,
   -0.0292,    0.0016,   -0.0020,   -0.0049,    0.0035,
    0.0072,    0.0272,   -0.0009,    0.0001,   -0.0111,
    0.0042,    0.0028,    0.0059,    0.0001,   -0.0053,


//val(:,:,1,6) =

    0.0270,    0.0154,   -0.0208,   -0.0245,   -0.0256,
    0.0039,   -0.0330,   -0.0385,    0.0101,    0.0141,
   -0.0266,   -0.0295,    0.0254,    0.0111,   -0.0214,
    0.0161,   -0.0216,    0.0107,    0.0022,   -0.0153,
   -0.0182,   -0.0256,   -0.0009,    0.0092,    0.0051,


//val(:,:,2,6) =

   -0.0047,    0.0018,   -0.0053,   -0.0065,   -0.0264,
   -0.0174,    0.0054,   -0.0197,   -0.0052,   -0.0086,
    0.0010,    0.0099,   -0.0054,   -0.0358,   -0.0034,
   -0.0136,   -0.0107,   -0.0281,   -0.0006,   -0.0077,
   -0.0059,   -0.0055,   -0.0060,   -0.0073,   -0.0226,


//val(:,:,3,6) =

    0.0180,   -0.0116,   -0.0022,    0.0134,    0.0034,
   -0.0046,   -0.0021,    0.0052,   -0.0029,   -0.0108,
   -0.0064,   -0.0230,   -0.0156,   -0.0023,    0.0090,
    0.0063,   -0.0188,    0.0078,   -0.0132,    0.0025,
   -0.0044,   -0.0027,    0.0065,   -0.0048,    0.0023,


//val(:,:,4,6) =

   -0.0051,   -0.0093,   -0.0000,   -0.0097,   -0.0268,
   -0.0087,    0.0131,   -0.0089,   -0.0206,    0.0051,
    0.0030,   -0.0090,   -0.0148,    0.0158,    0.0038,
    0.0141,    0.0066,   -0.0047,   -0.0004,   -0.0007,
   -0.0070,    0.0035,    0.0059,   -0.0029,   -0.0147,


//val(:,:,5,6) =

   -0.0086,   -0.0050,    0.0056,   -0.0062,   -0.0150,
   -0.0050,    0.0087,   -0.0046,    0.0051,   -0.0006,
    0.0060,   -0.0067,   -0.0242,    0.0198,   -0.0054,
   -0.0176,   -0.0046,   -0.0025,    0.0084,   -0.0023,
   -0.0050,    0.0002,    0.0018,   -0.0174,    0.0063,


//val(:,:,6,6) =

   -0.0134,   -0.0114,    0.0345,    0.0112,    0.0037,
   -0.0054,    0.0020,    0.0087,    0.0122,   -0.0030,
   -0.0008,    0.0178,    0.0091,    0.0083,   -0.0162,
    0.0000,    0.0147,   -0.0057,   -0.0103,   -0.0047,
    0.0047,    0.0090,   -0.0067,   -0.0157,   -0.0132,


//val(:,:,7,6) =

    0.0042,   -0.0110,   -0.0146,    0.0032,    0.0067,
   -0.0098,   -0.0190,    0.0045,    0.0048,   -0.0056,
    0.0002,   -0.0056,    0.0100,   -0.0059,   -0.0136,
    0.0128,    0.0013,   -0.0112,   -0.0095,    0.0029,
   -0.0247,    0.0038,   -0.0168,   -0.0009,    0.0022,


//val(:,:,8,6) =

   -0.0028,    0.0105,   -0.0121,    0.0061,   -0.0036,
   -0.0090,   -0.0047,    0.0083,   -0.0180,   -0.0208,
   -0.0117,   -0.0273,   -0.0133,   -0.0034,   -0.0005,
   -0.0219,   -0.0146,   -0.0086,   -0.0216,    0.0063,
   -0.0153,    0.0075,   -0.0092,   -0.0107,    0.0124,


//val(:,:,9,6) =

    0.0035,   -0.0106,   -0.0012,    0.0090,    0.0063,
    0.0079,    0.0115,   -0.0052,    0.0133,   -0.0147,
   -0.0036,    0.0077,    0.0031,   -0.0008,    0.0139,
   -0.0079,    0.0082,    0.0066,    0.0089,   -0.0155,
   -0.0004,    0.0111,    0.0067,   -0.0011,    0.0011,


//val(:,:,10,6) =

   -0.0067,   -0.0026,   -0.0079,   -0.0011,    0.0010,
   -0.0175,    0.0037,    0.0091,    0.0011,    0.0120,
    0.0019,    0.0042,    0.0247,    0.0057,    0.0010,
   -0.0031,    0.0158,    0.0051,   -0.0020,   -0.0037,
    0.0025,    0.0117,    0.0072,   -0.0044,    0.0130,


//val(:,:,11,6) =

    0.0149,   -0.0160,   -0.0131,   -0.0041,    0.0250,
   -0.0338,    0.0016,    0.0054,   -0.0018,   -0.0135,
   -0.0057,    0.0097,    0.0045,   -0.0029,   -0.0110,
   -0.0112,    0.0014,   -0.0053,   -0.0057,   -0.0007,
   -0.0158,   -0.0016,   -0.0066,   -0.0086,    0.0005,


//val(:,:,12,6) =

   -0.0081,   -0.0148,    0.0052,   -0.0042,    0.0000,
    0.0033,   -0.0009,   -0.0036,   -0.0104,    0.0122,
    0.0080,    0.0037,    0.0059,    0.0101,    0.0032,
   -0.0075,    0.0091,   -0.0048,   -0.0037,    0.0017,
   -0.0020,   -0.0111,   -0.0152,   -0.0145,    0.0157,


//val(:,:,13,6) =

   -0.0064,    0.0092,    0.0064,    0.0024,    0.0045,
    0.0027,    0.0211,   -0.0026,   -0.0168,    0.0120,
   -0.0074,    0.0068,    0.0025,    0.0106,   -0.0103,
   -0.0027,   -0.0095,   -0.0036,   -0.0081,    0.0010,
    0.0015,   -0.0028,    0.0007,    0.0135,    0.0001,


//val(:,:,14,6) =

   -0.0026,    0.0111,    0.0004,   -0.0212,   -0.0207,
    0.0036,   -0.0056,   -0.0159,   -0.0267,   -0.0077,
    0.0008,   -0.0030,   -0.0005,    0.0106,    0.0007,
   -0.0037,   -0.0094,   -0.0069,   -0.0061,    0.0030,
   -0.0025,   -0.0019,    0.0078,   -0.0223,    0.0065,


//val(:,:,15,6) =

    0.0005,   -0.0059,    0.0043,    0.0100,   -0.0192,
   -0.0035,    0.0094,    0.0026,   -0.0058,    0.0018,
    0.0124,   -0.0062,   -0.0142,    0.0034,    0.0065,
    0.0191,   -0.0163,   -0.0110,    0.0048,   -0.0072,
   -0.0011,   -0.0028,   -0.0109,   -0.0026,   -0.0005,


//val(:,:,16,6) =

   -0.0031,   -0.0040,    0.0483,   -0.0013,   -0.0234,
    0.0220,   -0.0014,    0.0192,   -0.0137,    0.0016,
    0.0053,    0.0085,   -0.0045,    0.0057,    0.0068,
    0.0043,    0.0048,    0.0059,   -0.0070,    0.0026,
   -0.0020,   -0.0073,   -0.0385,    0.0101,    0.0014,


//val(:,:,17,6) =

   -0.0093,   -0.0122,   -0.0105,    0.0168,    0.0106,
    0.0010,   -0.0103,    0.0193,    0.0186,   -0.0073,
   -0.0039,    0.0062,    0.0133,    0.0066,   -0.0110,
   -0.0174,    0.0016,   -0.0004,   -0.0055,   -0.0049,
   -0.0073,   -0.0034,   -0.0034,   -0.0108,    0.0068,


//val(:,:,18,6) =

   -0.0026,    0.0036,   -0.0011,   -0.0113,   -0.0008,
   -0.0017,   -0.0045,   -0.0133,   -0.0022,    0.0014,
    0.0026,   -0.0086,   -0.0146,    0.0051,    0.0069,
   -0.0022,   -0.0052,   -0.0223,    0.0043,   -0.0067,
   -0.0123,   -0.0031,   -0.0091,    0.0142,    0.0157,


//val(:,:,19,6) =

   -0.0110,   -0.0110,   -0.0086,    0.0132,    0.0032,
    0.0019,   -0.0004,    0.0149,   -0.0068,    0.0050,
   -0.0102,    0.0094,    0.0079,    0.0091,   -0.0045,
   -0.0184,   -0.0028,    0.0179,   -0.0176,    0.0046,
   -0.0151,    0.0092,    0.0317,   -0.0106,    0.0157,


//val(:,:,20,6) =

   -0.0264,   -0.0095,   -0.0098,   -0.0016,   -0.0040,
   -0.0277,    0.0035,   -0.0047,    0.0021,   -0.0131,
    0.0069,   -0.0213,   -0.0103,   -0.0017,    0.0118,
   -0.0035,   -0.0135,    0.0078,   -0.0002,   -0.0014,
   -0.0110,   -0.0070,   -0.0135,    0.0087,    0.0031,


//val(:,:,1,7) =

    0.0091,   -0.0235,   -0.0474,    0.0185,    0.0323,
    0.0228,   -0.0317,   -0.0144,    0.0336,    0.0146,
   -0.0090,   -0.0141,    0.0085,    0.0150,   -0.0157,
   -0.0082,    0.0062,    0.0173,   -0.0100,   -0.0125,
    0.0087,    0.0037,   -0.0091,   -0.0197,   -0.0040,


//val(:,:,2,7) =

   -0.0082,   -0.0069,   -0.0054,   -0.0245,   -0.0145,
   -0.0002,   -0.0127,   -0.0064,   -0.0223,    0.0080,
    0.0015,   -0.0245,   -0.0163,   -0.0182,    0.0029,
    0.0063,    0.0173,   -0.0042,    0.0091,    0.0031,
   -0.0139,    0.0016,   -0.0040,    0.0072,   -0.0152,


//val(:,:,3,7) =

    0.0114,   -0.0252,   -0.0026,    0.0205,   -0.0027,
   -0.0055,    0.0023,    0.0010,    0.0131,   -0.0082,
   -0.0126,   -0.0229,   -0.0008,   -0.0057,    0.0051,
   -0.0043,   -0.0198,   -0.0006,   -0.0011,   -0.0081,
    0.0017,    0.0098,   -0.0154,   -0.0062,   -0.0062,


//val(:,:,4,7) =

   -0.0076,    0.0108,    0.0008,    0.0108,    0.0100,
   -0.0045,    0.0004,   -0.0389,   -0.0032,    0.0198,
    0.0038,   -0.0073,   -0.0086,   -0.0117,    0.0065,
    0.0151,    0.0012,   -0.0072,    0.0045,    0.0006,
    0.0179,    0.0087,   -0.0044,   -0.0071,   -0.0010,


//val(:,:,5,7) =

   -0.0006,   -0.0084,   -0.0069,    0.0038,    0.0065,
   -0.0144,   -0.0155,   -0.0052,    0.0040,    0.0090,
   -0.0101,   -0.0310,   -0.0126,   -0.0051,    0.0035,
   -0.0023,    0.0050,    0.0055,    0.0126,    0.0027,
   -0.0004,    0.0014,    0.0096,   -0.0113,   -0.0020,


//val(:,:,6,7) =

   -0.0079,   -0.0176,    0.0017,   -0.0001,   -0.0186,
    0.0155,    0.0305,    0.0392,   -0.0141,   -0.0033,
   -0.0007,    0.0022,    0.0056,   -0.0061,   -0.0161,
   -0.0170,    0.0076,    0.0121,   -0.0053,   -0.0067,
   -0.0117,    0.0057,    0.0040,   -0.0247,   -0.0231,


//val(:,:,7,7) =

   -0.0120,   -0.0209,    0.0015,    0.0043,   -0.0121,
   -0.0134,    0.0024,    0.0075,   -0.0199,   -0.0086,
   -0.0136,    0.0069,    0.0009,   -0.0055,   -0.0004,
   -0.0014,    0.0008,   -0.0133,    0.0056,   -0.0043,
   -0.0025,    0.0067,   -0.0020,    0.0064,   -0.0246,


//val(:,:,8,7) =

   -0.0074,   -0.0113,   -0.0077,    0.0010,   -0.0013,
   -0.0016,   -0.0249,    0.0013,   -0.0112,   -0.0085,
    0.0195,   -0.0233,   -0.0119,   -0.0072,    0.0089,
   -0.0213,   -0.0283,    0.0068,    0.0152,    0.0042,
   -0.0106,   -0.0007,    0.0174,   -0.0013,   -0.0047,


//val(:,:,9,7) =

   -0.0191,    0.0075,    0.0040,    0.0057,   -0.0161,
   -0.0117,   -0.0003,   -0.0002,   -0.0084,   -0.0231,
   -0.0139,    0.0022,    0.0137,   -0.0011,   -0.0055,
   -0.0058,    0.0053,   -0.0014,    0.0092,    0.0154,
    0.0004,    0.0235,   -0.0072,    0.0067,    0.0000,


//val(:,:,10,7) =

    0.0018,   -0.0296,    0.0004,    0.0169,    0.0136,
   -0.0075,   -0.0048,    0.0267,    0.0273,   -0.0173,
    0.0047,    0.0047,    0.0080,   -0.0012,   -0.0014,
   -0.0015,   -0.0092,    0.0088,    0.0083,   -0.0104,
    0.0012,   -0.0025,   -0.0000,   -0.0140,   -0.0167,


//val(:,:,11,7) =

   -0.0143,   -0.0176,   -0.0124,    0.0099,    0.0053,
   -0.0069,   -0.0137,    0.0139,   -0.0185,   -0.0073,
   -0.0259,   -0.0093,   -0.0030,   -0.0099,    0.0135,
   -0.0187,   -0.0042,   -0.0089,   -0.0188,   -0.0005,
    0.0059,    0.0019,    0.0026,   -0.0027,    0.0042,


//val(:,:,12,7) =

    0.0055,    0.0166,    0.0164,   -0.0043,   -0.0236,
    0.0002,   -0.0119,   -0.0022,    0.0009,   -0.0074,
   -0.0148,   -0.0035,   -0.0098,   -0.0042,    0.0054,
   -0.0003,   -0.0033,    0.0034,   -0.0085,   -0.0088,
   -0.0178,    0.0001,   -0.0156,   -0.0149,    0.0120,


//val(:,:,13,7) =

   -0.0094,    0.0201,    0.0039,   -0.0005,    0.0205,
    0.0210,    0.0054,   -0.0278,   -0.0163,    0.0202,
   -0.0026,    0.0137,   -0.0278,    0.0045,    0.0110,
    0.0041,   -0.0149,   -0.0004,    0.0095,   -0.0145,
    0.0165,   -0.0156,    0.0136,    0.0067,    0.0026,


//val(:,:,14,7) =

   -0.0183,   -0.0098,   -0.0008,    0.0053,   -0.0298,
    0.0068,   -0.0159,    0.0028,    0.0128,   -0.0119,
    0.0123,   -0.0179,    0.0042,    0.0047,    0.0055,
   -0.0240,    0.0102,   -0.0079,   -0.0002,   -0.0057,
    0.0029,    0.0024,   -0.0060,   -0.0137,    0.0004,


//val(:,:,15,7) =

   -0.0030,    0.0065,   -0.0085,    0.0083,    0.0044,
   -0.0240,   -0.0090,   -0.0134,   -0.0054,    0.0037,
    0.0119,    0.0078,   -0.0062,    0.0122,   -0.0032,
    0.0158,    0.0177,   -0.0072,   -0.0010,   -0.0132,
   -0.0012,    0.0098,   -0.0012,   -0.0020,   -0.0115,


//val(:,:,16,7) =

    0.0028,    0.0011,    0.0104,   -0.0139,    0.0093,
    0.0075,    0.0101,   -0.0217,   -0.0174,   -0.0014,
   -0.0065,    0.0238,   -0.0149,    0.0124,   -0.0082,
    0.0017,   -0.0191,   -0.0141,    0.0064,   -0.0130,
    0.0063,   -0.0005,   -0.0002,   -0.0070,   -0.0057,


//val(:,:,17,7) =

   -0.0056,   -0.0026,    0.0079,   -0.0013,    0.0054,
    0.0125,    0.0008,   -0.0029,    0.0154,    0.0121,
   -0.0039,    0.0126,    0.0157,    0.0013,   -0.0124,
    0.0032,   -0.0135,    0.0072,   -0.0182,   -0.0059,
    0.0030,    0.0125,    0.0169,   -0.0081,   -0.0099,


//val(:,:,18,7) =

    0.0129,   -0.0195,   -0.0151,   -0.0368,    0.0042,
   -0.0116,    0.0092,   -0.0237,   -0.0408,   -0.0013,
    0.0062,   -0.0203,   -0.0065,   -0.0066,   -0.0034,
   -0.0122,    0.0043,   -0.0155,    0.0105,    0.0014,
    0.0007,   -0.0040,   -0.0044,   -0.0135,    0.0256,


//val(:,:,19,7) =

   -0.0097,   -0.0092,    0.0105,    0.0178,    0.0027,
    0.0070,   -0.0160,    0.0247,    0.0128,   -0.0186,
    0.0028,   -0.0197,    0.0340,   -0.0053,    0.0074,
   -0.0013,   -0.0088,   -0.0116,   -0.0023,   -0.0019,
   -0.0059,   -0.0011,    0.0075,    0.0052,    0.0149,


//val(:,:,20,7) =

   -0.0154,   -0.0254,   -0.0185,   -0.0108,   -0.0137,
   -0.0148,   -0.0183,   -0.0167,    0.0057,   -0.0028,
   -0.0237,   -0.0011,    0.0017,   -0.0040,   -0.0156,
   -0.0038,   -0.0049,   -0.0199,    0.0005,   -0.0159,
    0.0075,    0.0038,    0.0044,    0.0038,   -0.0070,


//val(:,:,1,8) =

    0.0044,    0.0004,   -0.0250,   -0.0182,    0.0067,
    0.0133,    0.0166,    0.0094,   -0.0220,   -0.0271,
   -0.0320,   -0.0255,    0.0216,    0.0037,   -0.0129,
   -0.0159,   -0.0156,   -0.0138,   -0.0018,    0.0048,
   -0.0039,   -0.0208,   -0.0367,   -0.0068,    0.0035,


//val(:,:,2,8) =

   -0.0076,   -0.0093,   -0.0068,    0.0109,   -0.0085,
   -0.0069,    0.0078,   -0.0087,   -0.0030,    0.0213,
   -0.0093,    0.0156,    0.0092,   -0.0035,    0.0002,
   -0.0127,    0.0033,    0.0230,    0.0149,   -0.0142,
    0.0004,   -0.0187,   -0.0250,    0.0083,   -0.0018,


//val(:,:,3,8) =

   -0.0002,    0.0185,    0.0092,    0.0049,    0.0064,
    0.0074,   -0.0192,    0.0019,   -0.0104,   -0.0036,
    0.0032,    0.0062,    0.0141,   -0.0026,   -0.0141,
    0.0034,   -0.0060,   -0.0108,   -0.0009,   -0.0038,
    0.0067,   -0.0108,   -0.0058,    0.0146,    0.0267,


//val(:,:,4,8) =

   -0.0080,    0.0058,    0.0018,    0.0041,   -0.0017,
   -0.0002,   -0.0085,   -0.0069,   -0.0103,   -0.0192,
   -0.0017,   -0.0102,   -0.0107,   -0.0013,   -0.0061,
    0.0119,    0.0008,   -0.0039,    0.0087,   -0.0013,
   -0.0149,   -0.0161,   -0.0065,    0.0062,    0.0154,


//val(:,:,5,8) =

   -0.0128,   -0.0048,    0.0068,    0.0032,    0.0026,
    0.0018,   -0.0233,   -0.0070,   -0.0004,    0.0056,
    0.0109,    0.0113,   -0.0119,   -0.0041,    0.0111,
   -0.0047,   -0.0017,    0.0281,    0.0090,   -0.0196,
    0.0167,    0.0103,    0.0105,    0.0235,    0.0006,


//val(:,:,6,8) =

   -0.0008,    0.0085,   -0.0054,   -0.0021,   -0.0028,
   -0.0073,   -0.0110,   -0.0213,   -0.0138,   -0.0003,
   -0.0039,   -0.0130,   -0.0248,   -0.0064,    0.0109,
   -0.0263,   -0.0008,   -0.0039,   -0.0160,   -0.0075,
   -0.0170,   -0.0081,    0.0044,   -0.0074,   -0.0092,


//val(:,:,7,8) =

    0.0123,    0.0054,    0.0020,   -0.0044,    0.0068,
   -0.0037,   -0.0010,   -0.0037,    0.0206,   -0.0044,
    0.0158,   -0.0128,    0.0119,    0.0114,   -0.0027,
   -0.0043,   -0.0017,    0.0017,   -0.0180,    0.0209,
   -0.0025,    0.0151,    0.0217,   -0.0167,    0.0109,


//val(:,:,8,8) =

    0.0028,   -0.0062,   -0.0125,   -0.0041,    0.0143,
   -0.0028,   -0.0076,   -0.0015,    0.0167,    0.0169,
    0.0211,    0.0150,    0.0173,   -0.0097,   -0.0092,
   -0.0091,   -0.0007,    0.0322,    0.0035,   -0.0003,
   -0.0084,   -0.0276,    0.0295,    0.0062,    0.0084,


//val(:,:,9,8) =

   -0.0031,   -0.0062,   -0.0050,    0.0048,   -0.0019,
   -0.0076,   -0.0033,   -0.0086,   -0.0035,   -0.0066,
   -0.0063,    0.0052,   -0.0165,   -0.0056,    0.0104,
   -0.0114,   -0.0018,    0.0095,    0.0063,    0.0077,
   -0.0009,   -0.0173,   -0.0216,   -0.0012,    0.0084,


//val(:,:,10,8) =

    0.0090,   -0.0035,   -0.0006,    0.0074,    0.0253,
    0.0045,   -0.0011,    0.0052,   -0.0049,   -0.0011,
   -0.0012,   -0.0005,   -0.0033,   -0.0086,   -0.0097,
    0.0009,   -0.0082,   -0.0002,   -0.0160,    0.0019,
    0.0006,    0.0003,    0.0066,   -0.0007,   -0.0252,


//val(:,:,11,8) =

    0.0163,   -0.0005,   -0.0084,   -0.0089,   -0.0130,
   -0.0063,    0.0012,    0.0039,    0.0184,   -0.0114,
    0.0008,    0.0050,   -0.0207,   -0.0025,   -0.0124,
    0.0043,    0.0039,   -0.0084,   -0.0010,    0.0238,
    0.0000,    0.0194,    0.0117,   -0.0042,   -0.0251,


//val(:,:,12,8) =

   -0.0107,    0.0022,   -0.0158,    0.0047,    0.0071,
   -0.0183,   -0.0130,    0.0077,    0.0020,    0.0125,
   -0.0087,   -0.0160,   -0.0039,    0.0045,    0.0077,
   -0.0230,   -0.0090,   -0.0032,   -0.0081,   -0.0057,
    0.0058,    0.0016,    0.0096,   -0.0092,   -0.0174,


//val(:,:,13,8) =

    0.0002,    0.0053,    0.0172,   -0.0031,    0.0223,
   -0.0030,   -0.0151,    0.0166,    0.0217,   -0.0093,
   -0.0032,   -0.0281,   -0.0035,    0.0044,   -0.0022,
    0.0065,   -0.0046,   -0.0137,    0.0130,    0.0206,
   -0.0063,   -0.0047,   -0.0048,    0.0051,   -0.0084,


//val(:,:,14,8) =

   -0.0177,   -0.0136,    0.0076,    0.0077,    0.0049,
   -0.0023,    0.0170,   -0.0136,   -0.0080,    0.0120,
    0.0044,    0.0118,    0.0093,   -0.0061,    0.0156,
   -0.0078,    0.0007,    0.0074,    0.0117,   -0.0029,
   -0.0055,   -0.0005,    0.0183,    0.0256,   -0.0066,


//val(:,:,15,8) =

    0.0002,    0.0114,    0.0032,   -0.0080,    0.0053,
   -0.0071,   -0.0072,    0.0113,   -0.0132,   -0.0066,
    0.0071,   -0.0011,   -0.0001,    0.0028,   -0.0207,
    0.0174,   -0.0046,   -0.0074,    0.0234,    0.0058,
    0.0019,    0.0183,    0.0031,   -0.0060,    0.0193,


//val(:,:,16,8) =

   -0.0074,    0.0088,    0.0126,    0.0151,    0.0107,
   -0.0154,   -0.0067,    0.0153,    0.0040,   -0.0112,
   -0.0006,   -0.0231,    0.0101,    0.0011,    0.0126,
    0.0095,   -0.0135,    0.0091,    0.0035,   -0.0033,
   -0.0022,    0.0112,    0.0142,    0.0026,   -0.0020,


//val(:,:,17,8) =

   -0.0015,    0.0015,    0.0188,   -0.0123,   -0.0007,
   -0.0067,    0.0179,    0.0007,    0.0068,    0.0049,
    0.0044,   -0.0273,    0.0129,   -0.0117,    0.0034,
   -0.0038,    0.0017,    0.0111,   -0.0070,    0.0008,
    0.0153,    0.0041,   -0.0052,   -0.0078,   -0.0128,


//val(:,:,18,8) =

   -0.0098,   -0.0065,   -0.0062,    0.0081,    0.0141,
    0.0013,    0.0101,    0.0127,   -0.0003,   -0.0088,
   -0.0270,    0.0190,    0.0193,    0.0203,   -0.0029,
   -0.0079,   -0.0056,   -0.0120,    0.0140,    0.0057,
   -0.0086,   -0.0044,   -0.0053,   -0.0076,    0.0194,


//val(:,:,19,8) =

    0.0043,   -0.0106,    0.0051,   -0.0066,    0.0106,
    0.0030,    0.0013,    0.0052,   -0.0057,    0.0113,
   -0.0078,    0.0279,    0.0073,   -0.0150,   -0.0108,
   -0.0165,    0.0163,    0.0178,   -0.0087,   -0.0257,
   -0.0105,    0.0011,    0.0136,   -0.0058,   -0.0071,


//val(:,:,20,8) =

   -0.0024,    0.0226,    0.0088,   -0.0046,    0.0025,
   -0.0157,   -0.0081,    0.0093,    0.0157,   -0.0144,
   -0.0102,   -0.0031,   -0.0010,    0.0273,   -0.0024,
   -0.0012,   -0.0022,   -0.0238,    0.0319,    0.0324,
    0.0189,    0.0054,    0.0077,   -0.0274,   -0.0011,


//val(:,:,1,9) =

    0.0051,    0.0110,    0.0116,    0.0500,    0.0078,
   -0.0299,   -0.0006,    0.0482,    0.0054,   -0.0201,
   -0.0288,    0.0220,    0.0193,   -0.0391,   -0.0081,
    0.0058,   -0.0117,   -0.0202,   -0.0008,   -0.0210,
   -0.0259,   -0.0156,   -0.0270,   -0.0146,   -0.0193,


//val(:,:,2,9) =

   -0.0034,    0.0073,   -0.0042,    0.0128,    0.0027,
   -0.0043,   -0.0018,   -0.0108,   -0.0023,    0.0035,
    0.0001,   -0.0050,   -0.0097,    0.0006,   -0.0021,
   -0.0048,   -0.0174,    0.0135,   -0.0008,    0.0056,
   -0.0189,   -0.0070,    0.0146,   -0.0083,   -0.0026,


//val(:,:,3,9) =

   -0.0043,    0.0141,    0.0158,   -0.0014,    0.0072,
    0.0083,    0.0041,    0.0298,   -0.0041,    0.0024,
    0.0083,    0.0113,   -0.0290,    0.0004,    0.0024,
   -0.0052,   -0.0014,    0.0023,   -0.0054,   -0.0109,
   -0.0123,   -0.0126,    0.0049,    0.0051,    0.0028,


//val(:,:,4,9) =

   -0.0032,    0.0037,   -0.0028,    0.0122,    0.0076,
   -0.0005,   -0.0075,   -0.0077,    0.0297,    0.0003,
    0.0054,   -0.0109,    0.0243,   -0.0013,   -0.0099,
   -0.0027,    0.0075,    0.0065,    0.0053,    0.0172,
    0.0029,   -0.0186,    0.0002,    0.0064,   -0.0142,


//val(:,:,5,9) =

   -0.0166,   -0.0131,    0.0097,    0.0043,    0.0045,
    0.0075,    0.0043,   -0.0059,    0.0227,   -0.0125,
   -0.0088,    0.0035,    0.0026,   -0.0110,   -0.0108,
   -0.0033,    0.0222,    0.0083,   -0.0155,    0.0012,
    0.0010,   -0.0027,   -0.0066,    0.0063,    0.0005,


//val(:,:,6,9) =

   -0.0118,   -0.0212,   -0.0203,   -0.0318,   -0.0032,
   -0.0087,   -0.0064,   -0.0043,    0.0067,   -0.0037,
    0.0032,   -0.0249,    0.0047,    0.0137,    0.0149,
   -0.0107,    0.0130,   -0.0053,    0.0034,    0.0104,
   -0.0124,   -0.0047,    0.0076,   -0.0022,    0.0038,


//val(:,:,7,9) =

   -0.0190,   -0.0035,    0.0040,    0.0072,   -0.0221,
   -0.0119,   -0.0048,    0.0034,   -0.0168,    0.0063,
   -0.0192,   -0.0020,   -0.0048,   -0.0076,    0.0085,
   -0.0053,   -0.0046,    0.0061,    0.0058,    0.0164,
   -0.0085,   -0.0028,   -0.0075,    0.0011,    0.0003,


//val(:,:,8,9) =

    0.0087,   -0.0121,    0.0061,   -0.0066,   -0.0089,
   -0.0042,    0.0125,   -0.0213,    0.0083,    0.0161,
    0.0175,   -0.0090,   -0.0063,   -0.0220,    0.0008,
    0.0157,    0.0042,   -0.0008,   -0.0111,   -0.0111,
   -0.0105,   -0.0040,   -0.0162,   -0.0015,   -0.0022,


//val(:,:,9,9) =

    0.0104,   -0.0144,    0.0018,   -0.0010,    0.0048,
    0.0019,   -0.0090,    0.0021,   -0.0069,    0.0097,
    0.0061,   -0.0050,    0.0067,    0.0107,   -0.0035,
    0.0055,   -0.0160,    0.0043,   -0.0127,    0.0002,
    0.0065,   -0.0136,   -0.0084,    0.0070,   -0.0001,


//val(:,:,10,9) =

   -0.0152,   -0.0197,    0.0000,    0.0112,   -0.0306,
    0.0019,   -0.0073,   -0.0148,   -0.0127,    0.0067,
    0.0045,   -0.0013,   -0.0080,    0.0112,    0.0043,
   -0.0084,   -0.0117,   -0.0057,    0.0005,   -0.0017,
    0.0047,   -0.0112,    0.0007,   -0.0009,   -0.0046,


//val(:,:,11,9) =

   -0.0010,    0.0155,    0.0168,   -0.0009,   -0.0089,
    0.0120,    0.0024,    0.0250,   -0.0309,    0.0067,
   -0.0090,    0.0178,   -0.0107,   -0.0047,   -0.0010,
   -0.0029,   -0.0010,   -0.0056,   -0.0000,   -0.0038,
   -0.0040,    0.0020,   -0.0012,   -0.0030,   -0.0121,


//val(:,:,12,9) =

   -0.0126,    0.0058,   -0.0054,   -0.0088,    0.0015,
   -0.0067,   -0.0191,   -0.0048,   -0.0056,   -0.0247,
    0.0001,    0.0113,   -0.0187,   -0.0109,    0.0056,
    0.0047,   -0.0097,   -0.0048,   -0.0126,   -0.0054,
    0.0155,    0.0263,    0.0106,   -0.0071,    0.0073,


//val(:,:,13,9) =

   -0.0031,   -0.0159,   -0.0077,    0.0135,   -0.0031,
   -0.0113,   -0.0108,   -0.0046,    0.0048,   -0.0202,
   -0.0002,   -0.0202,    0.0010,    0.0227,   -0.0044,
    0.0068,   -0.0089,    0.0013,    0.0038,    0.0001,
    0.0244,   -0.0067,   -0.0020,    0.0068,   -0.0189,


//val(:,:,14,9) =

   -0.0133,    0.0009,    0.0017,   -0.0107,   -0.0141,
    0.0072,    0.0058,   -0.0239,   -0.0143,    0.0001,
    0.0103,    0.0010,   -0.0085,   -0.0021,    0.0175,
    0.0102,   -0.0077,    0.0001,   -0.0094,    0.0074,
   -0.0141,   -0.0125,    0.0140,    0.0154,   -0.0018,


//val(:,:,15,9) =

    0.0043,    0.0084,   -0.0101,   -0.0111,    0.0104,
    0.0182,   -0.0141,   -0.0200,    0.0122,   -0.0058,
    0.0116,   -0.0021,   -0.0094,    0.0088,    0.0045,
   -0.0144,   -0.0023,    0.0205,   -0.0056,   -0.0067,
    0.0023,    0.0027,   -0.0000,    0.0104,    0.0106,


//val(:,:,16,9) =

   -0.0144,    0.0089,   -0.0009,   -0.0028,    0.0036,
   -0.0105,   -0.0015,   -0.0039,    0.0150,    0.0032,
    0.0034,   -0.0164,   -0.0030,    0.0176,   -0.0011,
   -0.0044,    0.0103,    0.0025,    0.0085,   -0.0266,
    0.0108,   -0.0038,    0.0064,   -0.0040,   -0.0153,


//val(:,:,17,9) =

    0.0068,   -0.0116,   -0.0003,   -0.0076,    0.0104,
    0.0034,   -0.0023,   -0.0108,   -0.0131,   -0.0008,
   -0.0125,    0.0155,   -0.0064,   -0.0062,   -0.0033,
    0.0027,   -0.0066,    0.0036,   -0.0106,    0.0006,
    0.0016,   -0.0134,   -0.0002,   -0.0067,   -0.0001,


//val(:,:,18,9) =

    0.0086,   -0.0017,    0.0125,    0.0093,    0.0050,
   -0.0019,   -0.0167,   -0.0005,   -0.0160,    0.0143,
    0.0048,   -0.0112,   -0.0045,   -0.0088,   -0.0095,
   -0.0038,    0.0055,    0.0163,    0.0062,    0.0015,
    0.0067,   -0.0052,    0.0054,    0.0085,   -0.0046,


//val(:,:,19,9) =

    0.0103,   -0.0071,    0.0246,   -0.0214,   -0.0245,
   -0.0027,    0.0081,   -0.0127,   -0.0011,   -0.0082,
   -0.0008,    0.0126,   -0.0013,   -0.0005,   -0.0010,
   -0.0150,   -0.0027,   -0.0098,    0.0062,    0.0055,
   -0.0064,   -0.0004,   -0.0072,   -0.0034,   -0.0213,


//val(:,:,20,9) =

   -0.0172,   -0.0048,   -0.0092,   -0.0036,   -0.0018,
   -0.0061,    0.0002,   -0.0219,   -0.0254,    0.0037,
   -0.0110,    0.0026,   -0.0042,   -0.0171,   -0.0058,
   -0.0089,   -0.0013,    0.0178,   -0.0068,   -0.0082,
    0.0039,   -0.0039,    0.0119,   -0.0326,    0.0041,


//val(:,:,1,10) =

   -0.0071,    0.0020,   -0.0322,    0.0032,   -0.0058,
    0.0048,    0.0084,    0.0224,    0.0118,   -0.0138,
    0.0069,    0.0207,    0.0344,    0.0139,   -0.0086,
   -0.0290,   -0.0399,   -0.0225,    0.0007,   -0.0116,
    0.0023,    0.0036,    0.0008,    0.0208,   -0.0255,


//val(:,:,2,10) =

   -0.0142,   -0.0140,   -0.0011,   -0.0166,    0.0075,
   -0.0012,   -0.0107,    0.0036,   -0.0168,   -0.0082,
    0.0272,    0.0426,    0.0239,    0.0172,   -0.0000,
    0.0015,    0.0189,    0.0305,    0.0122,   -0.0093,
   -0.0201,   -0.0254,   -0.0046,    0.0012,   -0.0149,


//val(:,:,3,10) =

    0.0029,   -0.0016,    0.0075,    0.0027,   -0.0006,
   -0.0151,    0.0066,    0.0149,    0.0125,   -0.0089,
   -0.0085,   -0.0155,   -0.0202,    0.0054,   -0.0235,
   -0.0179,   -0.0018,   -0.0004,    0.0282,   -0.0071,
   -0.0002,    0.0056,    0.0147,   -0.0220,    0.0110,


//val(:,:,4,10) =

   -0.0118,   -0.0166,   -0.0135,    0.0015,    0.0055,
    0.0121,   -0.0037,   -0.0183,   -0.0038,    0.0031,
    0.0155,   -0.0027,    0.0012,    0.0005,   -0.0040,
   -0.0113,   -0.0091,   -0.0081,    0.0032,    0.0029,
   -0.0104,   -0.0033,   -0.0153,    0.0240,    0.0098,


//val(:,:,5,10) =

   -0.0117,   -0.0117,    0.0063,   -0.0051,   -0.0076,
   -0.0158,   -0.0180,   -0.0021,   -0.0042,    0.0069,
    0.0057,   -0.0121,    0.0023,   -0.0104,   -0.0140,
   -0.0015,    0.0127,    0.0065,   -0.0053,   -0.0008,
   -0.0058,    0.0072,    0.0205,    0.0040,   -0.0004,


//val(:,:,6,10) =

    0.0146,   -0.0019,    0.0021,    0.0028,    0.0115,
   -0.0161,   -0.0286,    0.0010,    0.0043,   -0.0115,
   -0.0116,   -0.0227,   -0.0073,   -0.0314,   -0.0099,
   -0.0068,   -0.0137,    0.0025,   -0.0338,   -0.0061,
   -0.0167,   -0.0019,    0.0126,    0.0199,   -0.0144,


//val(:,:,7,10) =

   -0.0029,   -0.0026,   -0.0132,   -0.0012,    0.0008,
    0.0081,    0.0083,    0.0168,    0.0080,    0.0194,
   -0.0060,   -0.0248,    0.0012,   -0.0144,   -0.0046,
   -0.0131,    0.0002,    0.0001,   -0.0068,    0.0045,
    0.0076,    0.0223,    0.0055,   -0.0147,   -0.0010,


//val(:,:,8,10) =

   -0.0139,    0.0037,   -0.0012,   -0.0046,   -0.0047,
   -0.0270,   -0.0122,   -0.0073,   -0.0173,   -0.0003,
   -0.0071,   -0.0071,   -0.0001,   -0.0090,   -0.0014,
    0.0140,    0.0190,    0.0345,    0.0177,   -0.0093,
   -0.0083,   -0.0025,    0.0045,   -0.0091,   -0.0075,


//val(:,:,9,10) =

   -0.0082,   -0.0033,   -0.0072,   -0.0034,   -0.0032,
   -0.0137,   -0.0056,   -0.0078,    0.0009,    0.0092,
    0.0113,    0.0141,    0.0038,    0.0036,    0.0087,
   -0.0081,    0.0018,    0.0070,   -0.0045,   -0.0012,
    0.0048,   -0.0068,    0.0012,    0.0129,    0.0006,


//val(:,:,10,10) =

    0.0127,   -0.0120,   -0.0076,    0.0032,   -0.0005,
   -0.0250,   -0.0243,    0.0150,    0.0029,   -0.0124,
   -0.0138,   -0.0385,   -0.0255,   -0.0142,   -0.0049,
    0.0007,   -0.0004,   -0.0208,   -0.0162,   -0.0091,
    0.0123,    0.0095,   -0.0007,   -0.0172,   -0.0215,


//val(:,:,11,10) =

    0.0102,   -0.0098,    0.0056,    0.0032,    0.0096,
   -0.0042,    0.0100,   -0.0056,    0.0087,    0.0180,
    0.0031,   -0.0018,   -0.0063,   -0.0067,   -0.0063,
   -0.0033,   -0.0025,    0.0022,   -0.0136,   -0.0034,
    0.0174,    0.0076,    0.0036,    0.0050,   -0.0058,


//val(:,:,12,10) =

    0.0126,   -0.0057,   -0.0020,   -0.0018,   -0.0201,
   -0.0268,    0.0050,   -0.0051,   -0.0035,   -0.0004,
   -0.0228,    0.0121,   -0.0010,    0.0045,   -0.0132,
    0.0114,   -0.0012,   -0.0073,   -0.0025,    0.0081,
    0.0158,   -0.0023,    0.0191,    0.0033,    0.0113,


//val(:,:,13,10) =

    0.0043,   -0.0045,   -0.0214,   -0.0069,   -0.0087,
    0.0097,    0.0078,   -0.0132,    0.0078,   -0.0069,
   -0.0023,    0.0049,   -0.0142,   -0.0114,    0.0101,
   -0.0064,   -0.0144,   -0.0053,   -0.0122,    0.0024,
   -0.0043,   -0.0152,   -0.0085,   -0.0058,    0.0142,


//val(:,:,14,10) =

   -0.0006,   -0.0163,   -0.0213,    0.0038,    0.0022,
   -0.0033,    0.0000,   -0.0166,    0.0041,   -0.0142,
    0.0124,   -0.0086,    0.0158,   -0.0035,   -0.0079,
    0.0277,   -0.0091,    0.0068,    0.0037,   -0.0154,
    0.0084,   -0.0215,    0.0224,   -0.0069,   -0.0018,


//val(:,:,15,10) =

    0.0112,   -0.0123,   -0.0086,   -0.0147,    0.0001,
    0.0173,    0.0012,    0.0027,    0.0048,   -0.0149,
   -0.0175,   -0.0097,   -0.0200,   -0.0125,   -0.0105,
    0.0002,   -0.0013,   -0.0050,    0.0053,    0.0000,
   -0.0076,    0.0072,    0.0045,   -0.0092,    0.0026,


//val(:,:,16,10) =

   -0.0162,   -0.0148,    0.0033,   -0.0140,    0.0082,
   -0.0142,   -0.0101,   -0.0102,   -0.0127,   -0.0124,
    0.0087,   -0.0053,   -0.0186,    0.0039,   -0.0028,
   -0.0142,   -0.0103,   -0.0016,    0.0057,    0.0215,
   -0.0210,   -0.0003,   -0.0097,   -0.0034,    0.0081,


//val(:,:,17,10) =

   -0.0175,   -0.0139,    0.0064,    0.0049,    0.0045,
   -0.0156,   -0.0068,    0.0128,   -0.0071,    0.0066,
   -0.0048,   -0.0064,   -0.0002,   -0.0031,    0.0054,
   -0.0014,   -0.0149,   -0.0364,   -0.0064,   -0.0132,
    0.0298,    0.0109,   -0.0083,   -0.0088,   -0.0088,


//val(:,:,18,10) =

   -0.0161,   -0.0045,    0.0045,    0.0051,    0.0009,
    0.0160,   -0.0027,   -0.0099,   -0.0088,    0.0091,
    0.0230,    0.0203,    0.0198,    0.0286,    0.0000,
    0.0026,    0.0118,   -0.0102,   -0.0127,   -0.0060,
    0.0126,    0.0033,    0.0011,   -0.0071,    0.0145,


//val(:,:,19,10) =

    0.0048,    0.0083,   -0.0153,    0.0058,    0.0025,
   -0.0279,   -0.0155,   -0.0239,   -0.0103,   -0.0047,
   -0.0091,   -0.0207,   -0.0290,   -0.0136,    0.0044,
   -0.0197,    0.0053,   -0.0003,   -0.0179,   -0.0275,
    0.0124,   -0.0144,   -0.0022,   -0.0039,   -0.0074,


//val(:,:,20,10) =

    0.0005,   -0.0094,    0.0077,   -0.0047,    0.0135,
    0.0098,    0.0073,    0.0338,    0.0301,    0.0068,
   -0.0025,    0.0077,   -0.0034,    0.0313,   -0.0003,
    0.0047,   -0.0194,   -0.0003,   -0.0035,    0.0002,
    0.0054,   -0.0025,   -0.0130,   -0.0137,   -0.0124,


//val(:,:,1,11) =

   -0.0410,    0.0094,    0.0188,    0.0140,    0.0164,
   -0.0118,    0.0446,    0.0352,    0.0213,    0.0060,
    0.0154,    0.0314,    0.0142,   -0.0057,   -0.0067,
    0.0072,    0.0114,   -0.0121,   -0.0220,   -0.0399,
    0.0006,   -0.0429,   -0.0192,   -0.0231,   -0.0257,


//val(:,:,2,11) =

   -0.0120,   -0.0257,   -0.0200,   -0.0018,   -0.0080,
   -0.0128,   -0.0078,   -0.0057,    0.0029,    0.0184,
   -0.0255,   -0.0079,    0.0182,   -0.0067,    0.0107,
   -0.0168,    0.0066,   -0.0059,    0.0137,    0.0141,
    0.0086,   -0.0003,   -0.0010,   -0.0303,   -0.0066,


//val(:,:,3,11) =

   -0.0066,   -0.0061,   -0.0188,    0.0008,   -0.0015,
    0.0016,    0.0024,   -0.0243,    0.0058,   -0.0069,
    0.0266,    0.0092,   -0.0085,   -0.0056,   -0.0070,
   -0.0081,   -0.0186,   -0.0015,   -0.0028,    0.0111,
    0.0086,    0.0005,    0.0087,   -0.0189,   -0.0197,


//val(:,:,4,11) =

   -0.0068,   -0.0094,    0.0102,    0.0171,    0.0151,
   -0.0149,   -0.0140,   -0.0032,    0.0167,    0.0050,
    0.0009,    0.0247,    0.0286,    0.0067,   -0.0017,
    0.0206,   -0.0004,   -0.0034,    0.0077,    0.0067,
    0.0048,   -0.0125,   -0.0078,    0.0005,   -0.0169,


//val(:,:,5,11) =

   -0.0069,   -0.0204,   -0.0092,    0.0038,   -0.0076,
    0.0151,   -0.0060,   -0.0198,    0.0021,   -0.0105,
   -0.0153,    0.0075,    0.0076,    0.0077,   -0.0084,
    0.0097,    0.0228,    0.0008,   -0.0041,    0.0054,
    0.0033,    0.0007,   -0.0114,   -0.0152,   -0.0279,


//val(:,:,6,11) =

   -0.0094,    0.0123,   -0.0070,   -0.0064,   -0.0021,
   -0.0057,   -0.0069,   -0.0196,   -0.0090,   -0.0161,
    0.0037,   -0.0224,   -0.0170,   -0.0185,    0.0126,
   -0.0167,   -0.0103,    0.0150,   -0.0036,    0.0050,
    0.0074,   -0.0002,   -0.0066,    0.0099,    0.0086,


//val(:,:,7,11) =

   -0.0025,   -0.0028,   -0.0146,    0.0073,   -0.0020,
   -0.0083,   -0.0031,   -0.0026,   -0.0072,   -0.0112,
   -0.0161,   -0.0017,    0.0006,   -0.0041,   -0.0079,
   -0.0104,   -0.0149,    0.0155,   -0.0024,    0.0036,
   -0.0185,   -0.0004,   -0.0181,    0.0051,    0.0084,


//val(:,:,8,11) =

    0.0066,   -0.0129,   -0.0141,   -0.0127,    0.0054,
    0.0014,    0.0008,   -0.0045,   -0.0032,    0.0079,
   -0.0101,   -0.0009,    0.0115,   -0.0036,    0.0078,
   -0.0095,   -0.0098,   -0.0061,   -0.0088,   -0.0027,
    0.0025,   -0.0085,    0.0073,   -0.0091,   -0.0172,


//val(:,:,9,11) =

    0.0001,   -0.0052,   -0.0019,    0.0017,    0.0012,
    0.0054,   -0.0092,   -0.0089,    0.0065,   -0.0082,
   -0.0247,   -0.0113,    0.0030,    0.0000,   -0.0048,
   -0.0003,   -0.0166,    0.0082,    0.0186,    0.0055,
    0.0204,   -0.0027,   -0.0083,   -0.0147,    0.0088,


//val(:,:,10,11) =

    0.0081,   -0.0036,    0.0156,    0.0091,   -0.0175,
    0.0154,   -0.0248,   -0.0039,   -0.0125,   -0.0110,
   -0.0047,    0.0085,   -0.0161,   -0.0053,    0.0043,
    0.0015,    0.0093,   -0.0121,   -0.0158,    0.0166,
   -0.0085,    0.0046,   -0.0084,   -0.0038,    0.0081,


//val(:,:,11,11) =

   -0.0039,   -0.0142,    0.0116,    0.0018,   -0.0042,
    0.0094,   -0.0090,   -0.0037,   -0.0041,   -0.0090,
    0.0167,   -0.0102,   -0.0167,   -0.0154,    0.0013,
   -0.0322,   -0.0192,   -0.0011,    0.0044,   -0.0073,
   -0.0265,   -0.0186,   -0.0106,   -0.0062,   -0.0176,


//val(:,:,12,11) =

    0.0171,    0.0078,   -0.0194,   -0.0193,   -0.0012,
   -0.0073,   -0.0050,   -0.0095,    0.0029,   -0.0409,
   -0.0011,   -0.0026,    0.0049,   -0.0074,   -0.0197,
   -0.0019,    0.0083,    0.0034,    0.0020,   -0.0113,
   -0.0081,   -0.0062,   -0.0010,    0.0127,   -0.0119,


//val(:,:,13,11) =

   -0.0036,   -0.0094,   -0.0011,   -0.0024,    0.0074,
   -0.0042,   -0.0127,    0.0086,    0.0046,    0.0083,
   -0.0125,   -0.0057,    0.0066,   -0.0051,   -0.0125,
    0.0019,   -0.0038,   -0.0257,   -0.0100,   -0.0211,
   -0.0089,   -0.0249,   -0.0082,   -0.0007,   -0.0109,


//val(:,:,14,11) =

    0.0084,    0.0118,   -0.0154,   -0.0163,   -0.0037,
    0.0036,   -0.0035,   -0.0173,   -0.0075,   -0.0070,
   -0.0033,   -0.0092,   -0.0010,    0.0059,    0.0042,
   -0.0035,   -0.0064,    0.0141,    0.0160,    0.0054,
   -0.0088,    0.0010,   -0.0012,   -0.0168,   -0.0068,


//val(:,:,15,11) =

   -0.0211,   -0.0086,   -0.0091,    0.0006,   -0.0052,
   -0.0175,    0.0003,    0.0060,    0.0067,    0.0057,
   -0.0077,    0.0034,    0.0132,   -0.0054,   -0.0143,
   -0.0059,    0.0029,    0.0054,   -0.0052,    0.0107,
    0.0074,   -0.0011,    0.0006,    0.0027,   -0.0090,


//val(:,:,16,11) =

   -0.0044,    0.0084,    0.0027,    0.0014,   -0.0035,
   -0.0140,   -0.0150,    0.0088,   -0.0058,   -0.0157,
   -0.0032,   -0.0057,   -0.0001,    0.0013,   -0.0106,
   -0.0194,    0.0070,    0.0147,   -0.0172,   -0.0117,
   -0.0075,   -0.0183,   -0.0314,   -0.0225,   -0.0303,


//val(:,:,17,11) =

    0.0083,    0.0010,    0.0203,   -0.0157,   -0.0080,
    0.0030,   -0.0229,   -0.0043,   -0.0070,   -0.0038,
   -0.0051,    0.0128,   -0.0173,   -0.0026,    0.0005,
   -0.0146,    0.0022,   -0.0100,   -0.0040,   -0.0210,
   -0.0037,   -0.0139,    0.0033,    0.0021,   -0.0160,


//val(:,:,18,11) =

   -0.0173,    0.0067,   -0.0022,    0.0116,    0.0137,
   -0.0069,   -0.0122,   -0.0187,    0.0059,   -0.0005,
    0.0037,    0.0264,    0.0199,    0.0019,   -0.0016,
   -0.0077,   -0.0062,   -0.0099,   -0.0105,   -0.0083,
   -0.0028,    0.0026,   -0.0034,   -0.0003,   -0.0111,


//val(:,:,19,11) =

    0.0059,   -0.0046,   -0.0101,   -0.0048,    0.0084,
    0.0136,    0.0010,   -0.0292,   -0.0196,    0.0057,
    0.0037,   -0.0002,    0.0130,   -0.0133,   -0.0082,
   -0.0072,   -0.0276,   -0.0157,   -0.0090,    0.0045,
    0.0118,   -0.0142,    0.0040,   -0.0214,   -0.0147,


//val(:,:,20,11) =

   -0.0042,   -0.0045,   -0.0093,   -0.0017,   -0.0082,
   -0.0049,    0.0016,   -0.0103,    0.0062,   -0.0096,
    0.0147,    0.0101,   -0.0001,   -0.0059,   -0.0160,
   -0.0179,    0.0043,    0.0015,   -0.0026,   -0.0166,
    0.0030,   -0.0195,   -0.0054,   -0.0193,   -0.0064,


//val(:,:,1,12) =

   -0.0107,    0.0002,    0.0201,    0.0052,   -0.0195,
    0.0039,    0.0045,    0.0278,   -0.0382,   -0.0134,
    0.0085,   -0.0007,   -0.0329,    0.0206,    0.0339,
   -0.0287,   -0.0093,   -0.0134,    0.0173,   -0.0237,
   -0.0017,   -0.0206,   -0.0017,   -0.0257,   -0.0012,


//val(:,:,2,12) =

    0.0054,   -0.0237,   -0.0043,    0.0136,    0.0202,
   -0.0072,    0.0080,    0.0024,    0.0050,    0.0099,
   -0.0017,    0.0039,    0.0223,    0.0135,    0.0023,
   -0.0137,   -0.0079,   -0.0033,    0.0002,    0.0135,
    0.0131,   -0.0116,   -0.0088,    0.0201,    0.0075,


//val(:,:,3,12) =

    0.0065,    0.0107,    0.0310,   -0.0120,   -0.0089,
   -0.0015,    0.0124,    0.0021,   -0.0006,    0.0027,
    0.0039,    0.0056,    0.0113,    0.0236,    0.0123,
   -0.0135,    0.0156,    0.0005,   -0.0081,    0.0056,
   -0.0198,    0.0121,   -0.0032,    0.0033,    0.0131,


//val(:,:,4,12) =

    0.0072,   -0.0023,    0.0026,    0.0109,   -0.0049,
    0.0124,    0.0144,    0.0073,   -0.0189,   -0.0160,
   -0.0226,   -0.0073,    0.0093,   -0.0062,    0.0178,
   -0.0137,   -0.0120,   -0.0130,    0.0229,    0.0033,
   -0.0087,   -0.0078,    0.0018,   -0.0166,    0.0003,


//val(:,:,5,12) =

   -0.0159,    0.0054,   -0.0053,    0.0159,    0.0051,
   -0.0137,    0.0098,    0.0049,    0.0127,   -0.0060,
    0.0148,    0.0124,    0.0019,    0.0094,    0.0176,
    0.0026,   -0.0090,    0.0102,    0.0332,   -0.0066,
    0.0040,    0.0073,    0.0328,    0.0119,    0.0015,


//val(:,:,6,12) =

    0.0117,    0.0051,    0.0046,   -0.0067,   -0.0003,
   -0.0071,    0.0069,   -0.0282,   -0.0149,   -0.0046,
    0.0003,   -0.0057,   -0.0148,   -0.0044,   -0.0285,
   -0.0060,   -0.0092,   -0.0307,   -0.0080,   -0.0120,
   -0.0021,   -0.0243,   -0.0113,    0.0008,   -0.0255,


//val(:,:,7,12) =

    0.0053,    0.0161,    0.0089,    0.0004,    0.0115,
    0.0112,    0.0112,   -0.0058,    0.0109,    0.0157,
   -0.0124,    0.0101,    0.0018,    0.0100,   -0.0098,
   -0.0039,   -0.0010,   -0.0192,   -0.0320,    0.0072,
   -0.0162,   -0.0109,    0.0043,    0.0008,    0.0029,


//val(:,:,8,12) =

    0.0026,   -0.0199,   -0.0019,   -0.0084,    0.0005,
    0.0178,   -0.0128,   -0.0012,    0.0083,    0.0105,
   -0.0100,    0.0055,   -0.0062,    0.0029,   -0.0052,
    0.0200,   -0.0034,   -0.0061,    0.0054,    0.0156,
    0.0077,    0.0093,    0.0035,   -0.0015,   -0.0098,


//val(:,:,9,12) =

    0.0022,   -0.0093,    0.0059,    0.0217,    0.0101,
    0.0115,   -0.0115,    0.0113,    0.0071,    0.0058,
   -0.0088,   -0.0074,    0.0051,   -0.0134,   -0.0067,
    0.0023,    0.0040,    0.0068,    0.0001,   -0.0005,
   -0.0101,   -0.0006,    0.0059,    0.0061,    0.0048,


//val(:,:,10,12) =

    0.0038,    0.0050,    0.0303,   -0.0107,   -0.0202,
    0.0207,    0.0106,   -0.0100,   -0.0228,   -0.0076,
   -0.0172,   -0.0062,    0.0020,   -0.0096,   -0.0185,
    0.0036,   -0.0168,   -0.0141,   -0.0216,   -0.0181,
    0.0080,   -0.0068,   -0.0179,   -0.0078,   -0.0117,


//val(:,:,11,12) =

    0.0114,    0.0130,    0.0104,   -0.0052,   -0.0014,
    0.0036,    0.0232,   -0.0082,    0.0018,    0.0168,
    0.0064,    0.0191,   -0.0004,    0.0268,    0.0352,
    0.0080,   -0.0079,    0.0148,    0.0142,    0.0226,
    0.0010,    0.0049,   -0.0181,    0.0101,    0.0088,


//val(:,:,12,12) =

    0.0128,   -0.0108,   -0.0053,    0.0015,    0.0082,
   -0.0074,    0.0004,   -0.0177,    0.0068,   -0.0199,
    0.0038,    0.0017,   -0.0115,   -0.0173,    0.0060,
    0.0005,    0.0030,   -0.0132,   -0.0018,   -0.0056,
    0.0045,   -0.0120,   -0.0069,    0.0050,    0.0095,


//val(:,:,13,12) =

    0.0106,   -0.0014,   -0.0065,    0.0076,   -0.0072,
   -0.0000,   -0.0036,    0.0129,   -0.0095,   -0.0190,
    0.0078,   -0.0072,   -0.0095,   -0.0065,    0.0024,
    0.0073,   -0.0171,    0.0068,   -0.0060,    0.0018,
   -0.0251,    0.0058,    0.0034,   -0.0132,   -0.0128,


//val(:,:,14,12) =

    0.0025,   -0.0299,   -0.0065,   -0.0034,    0.0081,
   -0.0097,   -0.0090,   -0.0038,   -0.0141,   -0.0056,
   -0.0030,   -0.0008,    0.0154,   -0.0136,   -0.0094,
    0.0076,   -0.0065,    0.0004,   -0.0046,    0.0024,
    0.0073,   -0.0106,    0.0136,    0.0000,   -0.0065,


//val(:,:,15,12) =

   -0.0080,    0.0104,   -0.0107,   -0.0159,    0.0162,
   -0.0034,   -0.0031,    0.0019,    0.0109,    0.0074,
   -0.0044,    0.0244,    0.0024,    0.0227,   -0.0235,
    0.0075,    0.0044,   -0.0123,    0.0065,    0.0034,
    0.0017,   -0.0090,   -0.0033,    0.0016,    0.0034,


//val(:,:,16,12) =

    0.0085,    0.0185,   -0.0046,   -0.0050,   -0.0087,
    0.0022,   -0.0009,    0.0112,   -0.0235,   -0.0184,
    0.0204,    0.0138,    0.0137,   -0.0107,   -0.0072,
   -0.0090,   -0.0032,    0.0145,   -0.0021,    0.0283,
    0.0203,   -0.0118,   -0.0041,    0.0024,   -0.0092,


//val(:,:,17,12) =

    0.0012,    0.0048,    0.0203,   -0.0088,   -0.0080,
   -0.0099,    0.0159,    0.0044,    0.0017,    0.0010,
    0.0098,    0.0008,    0.0021,   -0.0146,   -0.0075,
    0.0049,   -0.0020,    0.0039,   -0.0137,   -0.0025,
   -0.0015,   -0.0020,   -0.0026,    0.0089,    0.0012,


//val(:,:,18,12) =

   -0.0025,    0.0088,   -0.0061,    0.0064,   -0.0018,
   -0.0221,   -0.0080,    0.0152,    0.0165,    0.0008,
    0.0058,    0.0041,    0.0028,    0.0076,   -0.0093,
    0.0008,    0.0128,    0.0166,    0.0235,    0.0164,
    0.0020,    0.0053,    0.0317,   -0.0005,   -0.0104,


//val(:,:,19,12) =

    0.0004,    0.0024,    0.0145,   -0.0109,   -0.0043,
    0.0103,    0.0133,   -0.0125,   -0.0226,   -0.0115,
    0.0038,   -0.0042,   -0.0034,    0.0073,   -0.0151,
    0.0046,   -0.0159,   -0.0189,   -0.0035,   -0.0191,
   -0.0038,   -0.0121,   -0.0162,   -0.0247,    0.0021,


//val(:,:,20,12) =

    0.0031,    0.0278,   -0.0008,    0.0083,    0.0048,
   -0.0080,    0.0000,   -0.0028,    0.0160,    0.0228,
    0.0032,   -0.0077,    0.0230,    0.0159,    0.0090,
    0.0121,    0.0208,    0.0191,   -0.0150,    0.0127,
   -0.0019,   -0.0129,    0.0112,   -0.0092,    0.0212,


//val(:,:,1,13) =

   -0.0328,   -0.0041,    0.0294,    0.0446,    0.0207,
   -0.0087,    0.0392,    0.0386,   -0.0066,   -0.0464,
    0.0154,    0.0033,   -0.0457,   -0.0388,   -0.0236,
   -0.0161,   -0.0267,   -0.0220,   -0.0179,    0.0019,
   -0.0139,   -0.0125,   -0.0169,    0.0270,   -0.0074,


//val(:,:,2,13) =

   -0.0095,   -0.0102,   -0.0320,   -0.0026,    0.0284,
   -0.0089,   -0.0240,    0.0133,    0.0191,    0.0105,
    0.0041,    0.0086,    0.0238,    0.0162,   -0.0072,
   -0.0089,    0.0112,    0.0095,   -0.0252,   -0.0072,
    0.0102,   -0.0121,   -0.0090,   -0.0055,   -0.0275,


//val(:,:,3,13) =

    0.0129,    0.0267,    0.0283,    0.0099,   -0.0099,
    0.0144,    0.0086,   -0.0107,   -0.0223,    0.0015,
    0.0093,   -0.0037,   -0.0005,    0.0004,    0.0223,
   -0.0017,    0.0066,    0.0135,    0.0124,   -0.0028,
   -0.0022,    0.0007,   -0.0204,    0.0112,   -0.0011,


//val(:,:,4,13) =

   -0.0064,   -0.0130,   -0.0110,    0.0206,    0.0188,
   -0.0022,    0.0150,    0.0241,    0.0210,   -0.0059,
   -0.0135,    0.0337,    0.0351,   -0.0288,   -0.0137,
   -0.0065,   -0.0098,   -0.0127,   -0.0139,    0.0030,
   -0.0196,   -0.0087,   -0.0109,   -0.0042,    0.0012,


//val(:,:,5,13) =

   -0.0053,    0.0056,   -0.0107,    0.0114,    0.0216,
   -0.0015,   -0.0054,    0.0285,    0.0206,    0.0078,
   -0.0024,    0.0313,    0.0358,   -0.0088,   -0.0043,
    0.0149,   -0.0026,    0.0033,    0.0019,    0.0064,
   -0.0080,   -0.0018,    0.0011,    0.0074,    0.0023,


//val(:,:,6,13) =

   -0.0109,   -0.0037,    0.0095,   -0.0307,   -0.0386,
   -0.0132,   -0.0238,   -0.0362,   -0.0025,    0.0087,
   -0.0003,   -0.0271,    0.0000,    0.0241,   -0.0004,
   -0.0181,    0.0098,    0.0155,   -0.0097,   -0.0226,
   -0.0059,   -0.0154,   -0.0279,   -0.0165,   -0.0088,


//val(:,:,7,13) =

    0.0148,    0.0165,    0.0306,   -0.0011,   -0.0022,
   -0.0052,    0.0031,   -0.0289,   -0.0107,    0.0003,
   -0.0141,   -0.0169,   -0.0063,    0.0217,    0.0154,
   -0.0162,    0.0144,    0.0187,    0.0024,    0.0029,
   -0.0115,   -0.0119,    0.0017,    0.0026,   -0.0161,


//val(:,:,8,13) =

   -0.0133,   -0.0203,    0.0008,   -0.0013,    0.0065,
   -0.0108,   -0.0284,    0.0068,   -0.0013,   -0.0034,
    0.0047,    0.0133,   -0.0057,    0.0018,   -0.0107,
    0.0077,    0.0032,   -0.0091,    0.0029,   -0.0041,
    0.0061,    0.0003,   -0.0010,   -0.0337,   -0.0032,


//val(:,:,9,13) =

   -0.0040,   -0.0059,    0.0094,   -0.0028,   -0.0076,
   -0.0006,   -0.0101,    0.0058,    0.0072,    0.0114,
   -0.0130,   -0.0063,   -0.0075,    0.0127,    0.0008,
   -0.0119,    0.0046,   -0.0229,   -0.0051,   -0.0078,
   -0.0041,   -0.0002,   -0.0023,   -0.0013,   -0.0048,


//val(:,:,10,13) =

    0.0234,    0.0133,    0.0137,    0.0030,   -0.0131,
    0.0119,    0.0080,    0.0095,   -0.0336,   -0.0050,
    0.0041,    0.0065,   -0.0044,    0.0117,    0.0069,
   -0.0040,   -0.0057,    0.0200,    0.0065,   -0.0091,
    0.0022,   -0.0108,   -0.0012,   -0.0067,   -0.0187,


//val(:,:,11,13) =

    0.0055,    0.0191,   -0.0011,    0.0269,   -0.0066,
    0.0046,    0.0238,    0.0075,   -0.0128,   -0.0053,
   -0.0130,   -0.0078,   -0.0228,   -0.0070,    0.0197,
   -0.0151,   -0.0196,    0.0130,    0.0090,   -0.0009,
    0.0208,    0.0001,    0.0147,   -0.0030,   -0.0169,


//val(:,:,12,13) =

   -0.0015,    0.0003,   -0.0188,    0.0061,    0.0051,
   -0.0007,   -0.0156,   -0.0092,    0.0040,   -0.0258,
   -0.0135,   -0.0062,   -0.0153,   -0.0134,   -0.0188,
    0.0020,   -0.0017,   -0.0027,    0.0141,   -0.0064,
    0.0013,   -0.0053,   -0.0165,    0.0047,   -0.0034,


//val(:,:,13,13) =

   -0.0182,   -0.0058,   -0.0005,    0.0049,   -0.0096,
    0.0035,    0.0110,   -0.0068,    0.0021,   -0.0054,
   -0.0133,   -0.0149,   -0.0042,   -0.0062,   -0.0053,
   -0.0070,   -0.0099,   -0.0031,   -0.0079,    0.0055,
   -0.0150,   -0.0104,   -0.0189,   -0.0136,    0.0029,


//val(:,:,14,13) =

    0.0107,    0.0015,   -0.0168,   -0.0184,    0.0045,
   -0.0025,    0.0043,   -0.0046,    0.0030,   -0.0160,
   -0.0036,    0.0115,    0.0015,    0.0084,   -0.0065,
    0.0037,   -0.0001,    0.0079,    0.0136,   -0.0197,
   -0.0065,   -0.0150,    0.0031,   -0.0061,   -0.0077,


//val(:,:,15,13) =

   -0.0066,    0.0252,   -0.0018,   -0.0054,   -0.0020,
   -0.0127,   -0.0007,   -0.0020,   -0.0085,    0.0032,
   -0.0026,    0.0012,    0.0043,    0.0082,    0.0029,
   -0.0100,   -0.0126,    0.0070,   -0.0164,    0.0052,
    0.0097,    0.0152,   -0.0022,   -0.0022,   -0.0156,


//val(:,:,16,13) =

   -0.0181,    0.0050,   -0.0112,   -0.0189,   -0.0032,
   -0.0049,    0.0122,    0.0104,    0.0206,    0.0015,
   -0.0065,    0.0013,    0.0158,    0.0052,   -0.0140,
   -0.0022,   -0.0013,    0.0061,   -0.0143,   -0.0076,
   -0.0161,   -0.0235,   -0.0189,    0.0070,   -0.0049,


//val(:,:,17,13) =

    0.0098,    0.0103,    0.0106,    0.0073,    0.0094,
   -0.0022,    0.0063,   -0.0066,   -0.0225,   -0.0056,
    0.0018,   -0.0242,   -0.0053,    0.0159,    0.0186,
   -0.0057,   -0.0019,    0.0197,    0.0152,   -0.0127,
   -0.0043,   -0.0086,    0.0147,   -0.0023,   -0.0084,


//val(:,:,18,13) =

   -0.0141,   -0.0336,   -0.0267,    0.0061,    0.0003,
    0.0053,   -0.0095,   -0.0153,   -0.0052,   -0.0162,
   -0.0023,   -0.0195,   -0.0072,   -0.0066,   -0.0073,
   -0.0063,    0.0096,    0.0074,   -0.0176,   -0.0132,
   -0.0216,    0.0126,    0.0117,    0.0058,    0.0069,


//val(:,:,19,13) =

    0.0074,   -0.0124,    0.0126,    0.0025,   -0.0290,
    0.0172,    0.0113,   -0.0093,   -0.0254,   -0.0134,
    0.0069,   -0.0189,   -0.0200,    0.0140,    0.0011,
   -0.0062,   -0.0300,   -0.0037,    0.0106,   -0.0114,
   -0.0065,   -0.0125,    0.0013,   -0.0320,   -0.0206,


//val(:,:,20,13) =

   -0.0085,    0.0027,    0.0168,   -0.0103,   -0.0216,
   -0.0091,    0.0052,   -0.0153,    0.0010,   -0.0118,
    0.0092,   -0.0314,   -0.0113,   -0.0187,    0.0065,
   -0.0069,    0.0018,    0.0068,    0.0019,   -0.0133,
    0.0126,    0.0168,    0.0151,   -0.0121,    0.0021,


//val(:,:,1,14) =

   -0.0277,   -0.0002,   -0.0087,   -0.0261,   -0.0228,
   -0.0043,   -0.0287,   -0.0286,    0.0234,   -0.0156,
   -0.0173,   -0.0216,    0.0198,    0.0302,   -0.0317,
   -0.0063,    0.0314,    0.0219,   -0.0197,   -0.0246,
    0.0222,    0.0062,   -0.0141,   -0.0064,   -0.0194,


//val(:,:,2,14) =

   -0.0045,    0.0182,    0.0121,    0.0084,   -0.0191,
    0.0065,   -0.0006,    0.0086,   -0.0129,   -0.0109,
   -0.0038,    0.0066,   -0.0138,   -0.0007,   -0.0098,
   -0.0045,   -0.0224,    0.0017,    0.0113,    0.0002,
   -0.0079,   -0.0047,    0.0007,    0.0080,   -0.0028,


//val(:,:,3,14) =

   -0.0075,    0.0138,   -0.0141,   -0.0004,   -0.0085,
    0.0023,   -0.0070,    0.0001,    0.0143,   -0.0130,
    0.0066,    0.0043,    0.0293,   -0.0019,    0.0040,
    0.0279,    0.0157,   -0.0015,   -0.0061,    0.0041,
    0.0067,   -0.0203,    0.0238,    0.0077,    0.0001,


//val(:,:,4,14) =

   -0.0091,   -0.0052,   -0.0003,   -0.0082,   -0.0142,
    0.0057,   -0.0085,   -0.0065,    0.0005,    0.0040,
   -0.0052,   -0.0054,    0.0062,    0.0266,    0.0012,
   -0.0062,    0.0168,    0.0142,    0.0024,    0.0055,
    0.0104,   -0.0119,    0.0020,   -0.0210,   -0.0068,


//val(:,:,5,14) =

   -0.0025,   -0.0055,   -0.0123,    0.0134,   -0.0190,
    0.0144,    0.0036,    0.0063,   -0.0205,   -0.0157,
    0.0131,    0.0036,    0.0248,    0.0067,    0.0060,
    0.0004,    0.0012,    0.0152,    0.0028,   -0.0067,
    0.0257,    0.0215,   -0.0045,   -0.0032,   -0.0134,


//val(:,:,6,14) =

   -0.0173,   -0.0133,   -0.0145,   -0.0257,    0.0307,
   -0.0146,   -0.0227,   -0.0079,   -0.0229,   -0.0263,
    0.0008,    0.0060,    0.0090,   -0.0142,   -0.0193,
    0.0116,   -0.0146,   -0.0039,    0.0115,    0.0053,
   -0.0035,   -0.0089,    0.0148,    0.0114,   -0.0080,


//val(:,:,7,14) =

   -0.0110,   -0.0206,   -0.0046,   -0.0079,   -0.0049,
    0.0092,    0.0071,    0.0114,    0.0166,   -0.0094,
   -0.0046,    0.0006,   -0.0009,   -0.0059,   -0.0201,
    0.0123,   -0.0056,   -0.0227,    0.0070,   -0.0077,
    0.0001,   -0.0092,    0.0105,    0.0027,    0.0101,


//val(:,:,8,14) =

   -0.0043,    0.0084,    0.0182,   -0.0097,   -0.0087,
    0.0002,    0.0044,    0.0264,   -0.0097,    0.0028,
    0.0155,    0.0038,   -0.0041,   -0.0253,   -0.0185,
   -0.0083,   -0.0124,   -0.0164,   -0.0199,   -0.0130,
   -0.0062,   -0.0026,   -0.0018,   -0.0084,   -0.0006,


//val(:,:,9,14) =

    0.0042,    0.0057,   -0.0014,   -0.0051,   -0.0079,
   -0.0042,   -0.0018,   -0.0026,    0.0126,   -0.0157,
   -0.0086,   -0.0130,   -0.0010,   -0.0113,    0.0135,
   -0.0221,    0.0076,    0.0007,    0.0006,    0.0028,
   -0.0057,    0.0069,    0.0103,   -0.0059,   -0.0013,


//val(:,:,10,14) =

   -0.0044,    0.0009,   -0.0048,    0.0096,   -0.0011,
   -0.0072,    0.0047,   -0.0083,   -0.0152,   -0.0017,
   -0.0071,    0.0165,    0.0140,    0.0059,    0.0060,
    0.0168,    0.0026,   -0.0198,    0.0071,   -0.0021,
    0.0043,   -0.0163,    0.0137,    0.0087,   -0.0049,


//val(:,:,11,14) =

    0.0261,   -0.0201,    0.0049,   -0.0135,   -0.0261,
    0.0179,   -0.0056,    0.0101,    0.0014,    0.0049,
    0.0037,    0.0161,    0.0118,    0.0103,   -0.0167,
    0.0211,    0.0274,   -0.0040,   -0.0035,   -0.0015,
    0.0140,    0.0072,    0.0039,   -0.0120,   -0.0003,


//val(:,:,12,14) =

    0.0040,   -0.0060,    0.0016,    0.0030,   -0.0027,
   -0.0085,    0.0042,   -0.0106,   -0.0145,   -0.0135,
    0.0013,   -0.0032,    0.0031,   -0.0113,    0.0105,
   -0.0239,    0.0072,    0.0144,   -0.0023,   -0.0042,
   -0.0119,    0.0167,    0.0107,    0.0039,    0.0143,


//val(:,:,13,14) =

    0.0032,   -0.0093,   -0.0063,   -0.0064,    0.0028,
   -0.0123,    0.0061,   -0.0026,    0.0055,   -0.0002,
   -0.0011,   -0.0151,   -0.0056,    0.0039,    0.0105,
    0.0036,   -0.0113,   -0.0068,    0.0139,   -0.0048,
   -0.0088,    0.0140,   -0.0011,   -0.0263,    0.0164,


//val(:,:,14,14) =

   -0.0027,   -0.0225,    0.0058,   -0.0172,    0.0019,
   -0.0031,   -0.0002,    0.0099,    0.0016,   -0.0089,
    0.0063,    0.0030,   -0.0095,   -0.0136,    0.0054,
    0.0089,    0.0080,   -0.0166,   -0.0159,    0.0077,
   -0.0152,   -0.0036,   -0.0016,   -0.0012,    0.0051,


//val(:,:,15,14) =

   -0.0007,   -0.0111,    0.0144,    0.0172,    0.0018,
    0.0018,   -0.0062,    0.0012,    0.0003,    0.0038,
   -0.0046,   -0.0005,   -0.0095,   -0.0098,    0.0033,
    0.0190,   -0.0134,    0.0103,    0.0158,   -0.0032,
   -0.0102,   -0.0104,   -0.0026,   -0.0033,   -0.0237,


//val(:,:,16,14) =

   -0.0042,   -0.0034,    0.0002,   -0.0129,    0.0087,
    0.0026,    0.0133,    0.0055,   -0.0007,   -0.0010,
    0.0119,    0.0136,   -0.0035,    0.0011,   -0.0028,
    0.0033,   -0.0153,    0.0071,    0.0188,    0.0049,
    0.0006,    0.0083,    0.0145,   -0.0078,   -0.0118,


//val(:,:,17,14) =

   -0.0021,   -0.0131,    0.0130,    0.0046,   -0.0142,
    0.0244,    0.0118,    0.0117,    0.0008,    0.0082,
   -0.0046,   -0.0019,   -0.0058,   -0.0044,   -0.0236,
    0.0065,    0.0092,    0.0127,    0.0191,    0.0093,
    0.0107,   -0.0095,   -0.0004,   -0.0110,    0.0130,


//val(:,:,18,14) =

   -0.0159,    0.0116,   -0.0053,    0.0114,    0.0025,
    0.0022,   -0.0044,   -0.0027,   -0.0142,    0.0132,
   -0.0100,    0.0085,   -0.0228,    0.0006,    0.0140,
    0.0065,    0.0020,    0.0087,    0.0215,   -0.0049,
   -0.0112,   -0.0187,    0.0147,    0.0079,   -0.0072,


//val(:,:,19,14) =

   -0.0065,    0.0029,    0.0022,   -0.0005,    0.0089,
   -0.0020,   -0.0066,    0.0012,    0.0257,   -0.0046,
   -0.0063,   -0.0038,    0.0101,   -0.0096,   -0.0037,
   -0.0019,   -0.0101,   -0.0022,    0.0007,    0.0118,
   -0.0050,   -0.0242,   -0.0079,   -0.0021,   -0.0001,


//val(:,:,20,14) =

   -0.0109,    0.0038,   -0.0029,    0.0245,    0.0124,
   -0.0185,    0.0025,    0.0062,    0.0034,   -0.0087,
   -0.0204,    0.0135,   -0.0051,   -0.0239,   -0.0076,
    0.0033,   -0.0040,   -0.0030,   -0.0205,   -0.0143,
    0.0034,   -0.0096,   -0.0167,   -0.0027,    0.0035,


//val(:,:,1,15) =

   -0.0121,   -0.0007,   -0.0130,    0.0081,    0.0096,
   -0.0100,    0.0029,   -0.0243,   -0.0316,   -0.0240,
    0.0383,    0.0270,   -0.0104,   -0.0263,   -0.0234,
    0.0226,    0.0247,   -0.0050,   -0.0129,   -0.0101,
    0.0169,    0.0245,    0.0055,    0.0070,   -0.0043,


//val(:,:,2,15) =

   -0.0129,   -0.0047,   -0.0004,   -0.0039,    0.0003,
   -0.0152,   -0.0227,   -0.0009,    0.0239,    0.0059,
   -0.0156,   -0.0302,   -0.0050,    0.0086,   -0.0176,
   -0.0014,   -0.0194,   -0.0083,   -0.0141,    0.0057,
    0.0029,    0.0025,   -0.0038,   -0.0169,    0.0137,


//val(:,:,3,15) =

    0.0009,   -0.0080,   -0.0179,   -0.0038,   -0.0038,
    0.0032,    0.0026,   -0.0052,   -0.0115,    0.0154,
    0.0098,    0.0177,   -0.0015,   -0.0172,    0.0024,
    0.0063,   -0.0157,    0.0067,    0.0075,    0.0004,
    0.0017,    0.0162,   -0.0086,   -0.0061,    0.0023,


//val(:,:,4,15) =

    0.0026,    0.0068,    0.0032,    0.0022,   -0.0027,
   -0.0149,   -0.0013,    0.0006,    0.0148,   -0.0064,
    0.0045,   -0.0037,   -0.0054,    0.0080,   -0.0108,
   -0.0006,   -0.0054,   -0.0022,   -0.0077,   -0.0023,
   -0.0055,    0.0146,    0.0005,    0.0113,   -0.0062,


//val(:,:,5,15) =

   -0.0227,   -0.0021,    0.0015,   -0.0110,   -0.0125,
    0.0036,   -0.0041,    0.0065,    0.0201,    0.0079,
   -0.0172,   -0.0099,   -0.0008,   -0.0060,    0.0056,
   -0.0074,   -0.0081,   -0.0210,   -0.0071,   -0.0017,
    0.0020,   -0.0138,    0.0093,    0.0099,   -0.0079,


//val(:,:,6,15) =

   -0.0067,   -0.0121,    0.0016,   -0.0164,   -0.0092,
   -0.0231,   -0.0068,    0.0131,   -0.0061,    0.0013,
   -0.0126,   -0.0195,   -0.0125,   -0.0026,    0.0064,
   -0.0249,   -0.0293,    0.0015,    0.0099,    0.0037,
   -0.0055,   -0.0420,   -0.0129,   -0.0072,   -0.0090,


//val(:,:,7,15) =

   -0.0199,    0.0051,    0.0006,   -0.0072,   -0.0323,
   -0.0043,    0.0107,   -0.0070,    0.0016,   -0.0096,
   -0.0166,   -0.0092,   -0.0024,   -0.0025,    0.0144,
   -0.0068,   -0.0155,   -0.0109,    0.0145,   -0.0018,
   -0.0156,   -0.0004,    0.0080,    0.0037,   -0.0091,


//val(:,:,8,15) =

   -0.0028,   -0.0007,    0.0029,   -0.0278,    0.0005,
    0.0188,   -0.0040,   -0.0101,    0.0001,    0.0024,
    0.0047,   -0.0067,   -0.0105,    0.0067,   -0.0141,
    0.0061,   -0.0073,   -0.0202,   -0.0038,    0.0221,
    0.0123,    0.0060,   -0.0025,    0.0125,    0.0038,


//val(:,:,9,15) =

    0.0088,   -0.0090,   -0.0055,    0.0021,   -0.0099,
    0.0035,   -0.0070,   -0.0109,   -0.0014,    0.0016,
   -0.0088,   -0.0090,    0.0071,    0.0073,    0.0087,
   -0.0068,    0.0045,   -0.0003,    0.0019,   -0.0050,
   -0.0263,    0.0030,    0.0027,   -0.0002,    0.0043,


//val(:,:,10,15) =

    0.0021,   -0.0160,    0.0024,    0.0062,   -0.0038,
    0.0282,   -0.0074,   -0.0014,   -0.0070,    0.0002,
   -0.0069,   -0.0050,   -0.0094,    0.0015,    0.0120,
   -0.0077,   -0.0181,   -0.0116,   -0.0086,   -0.0154,
   -0.0062,   -0.0089,   -0.0185,   -0.0205,    0.0012,


//val(:,:,11,15) =

   -0.0024,   -0.0022,   -0.0031,   -0.0107,    0.0038,
   -0.0064,   -0.0023,   -0.0089,   -0.0219,   -0.0105,
   -0.0047,   -0.0274,   -0.0239,   -0.0102,   -0.0111,
    0.0072,   -0.0093,   -0.0005,   -0.0012,    0.0016,
   -0.0209,    0.0023,    0.0089,    0.0117,   -0.0019,


//val(:,:,12,15) =

   -0.0091,   -0.0157,   -0.0064,   -0.0204,   -0.0080,
   -0.0048,    0.0143,   -0.0001,    0.0141,   -0.0171,
   -0.0031,   -0.0015,   -0.0001,   -0.0029,   -0.0108,
    0.0063,   -0.0130,   -0.0102,    0.0073,    0.0104,
    0.0127,   -0.0116,   -0.0029,    0.0077,   -0.0022,


//val(:,:,13,15) =

    0.0132,    0.0037,    0.0113,   -0.0173,   -0.0018,
   -0.0052,    0.0252,   -0.0153,   -0.0097,    0.0205,
   -0.0348,    0.0166,    0.0078,    0.0046,    0.0000,
   -0.0157,   -0.0045,    0.0081,   -0.0031,    0.0102,
    0.0043,    0.0283,   -0.0028,   -0.0037,   -0.0059,


//val(:,:,14,15) =

   -0.0194,    0.0040,    0.0084,   -0.0197,    0.0169,
   -0.0064,    0.0140,    0.0003,   -0.0106,    0.0028,
    0.0015,   -0.0034,    0.0095,   -0.0110,    0.0016,
    0.0027,   -0.0111,    0.0052,    0.0063,   -0.0027,
    0.0021,    0.0005,    0.0017,   -0.0012,    0.0132,


//val(:,:,15,15) =

    0.0099,    0.0045,    0.0083,   -0.0019,    0.0112,
    0.0019,    0.0102,   -0.0016,   -0.0010,    0.0033,
   -0.0075,    0.0149,   -0.0089,   -0.0029,   -0.0007,
   -0.0085,    0.0122,   -0.0028,   -0.0053,    0.0124,
   -0.0063,   -0.0079,    0.0013,    0.0107,   -0.0039,


//val(:,:,16,15) =

    0.0012,   -0.0025,   -0.0085,    0.0030,    0.0014,
   -0.0022,    0.0092,   -0.0263,    0.0077,   -0.0052,
    0.0000,   -0.0058,    0.0183,    0.0121,   -0.0009,
   -0.0080,    0.0269,    0.0054,    0.0042,   -0.0001,
    0.0043,    0.0185,    0.0130,   -0.0145,    0.0011,


//val(:,:,17,15) =

   -0.0070,    0.0045,    0.0082,    0.0046,    0.0034,
   -0.0092,    0.0055,   -0.0095,    0.0030,   -0.0191,
   -0.0118,   -0.0139,   -0.0095,    0.0095,    0.0017,
    0.0035,   -0.0191,    0.0015,   -0.0174,    0.0108,
   -0.0023,   -0.0067,   -0.0009,    0.0009,   -0.0154,


//val(:,:,18,15) =

    0.0034,    0.0114,    0.0024,   -0.0035,    0.0047,
   -0.0091,    0.0008,   -0.0178,   -0.0011,   -0.0079,
    0.0019,    0.0149,   -0.0033,    0.0077,   -0.0027,
   -0.0192,    0.0131,    0.0084,   -0.0056,    0.0016,
   -0.0239,    0.0064,    0.0126,    0.0020,   -0.0226,


//val(:,:,19,15) =

    0.0178,   -0.0142,    0.0236,    0.0211,    0.0009,
    0.0193,   -0.0106,   -0.0042,   -0.0162,    0.0032,
    0.0257,    0.0011,    0.0102,   -0.0102,    0.0248,
    0.0200,    0.0137,   -0.0032,   -0.0075,    0.0204,
    0.0118,   -0.0078,   -0.0253,   -0.0066,    0.0130,


//val(:,:,20,15) =

   -0.0071,   -0.0121,   -0.0015,    0.0050,   -0.0021,
    0.0075,   -0.0261,    0.0013,   -0.0198,   -0.0137,
   -0.0035,    0.0009,   -0.0112,   -0.0043,   -0.0085,
   -0.0165,   -0.0054,    0.0119,    0.0016,   -0.0075,
   -0.0108,    0.0110,    0.0150,   -0.0033,   -0.0167,


//val(:,:,1,16) =

   -0.0168,   -0.0449,   -0.0513,   -0.0249,   -0.0417,
    0.0088,    0.0185,   -0.0005,   -0.0008,    0.0060,
    0.0283,    0.0242,    0.0258,    0.0113,    0.0025,
    0.0004,   -0.0149,    0.0048,   -0.0089,   -0.0130,
    0.0029,    0.0077,    0.0136,    0.0110,   -0.0019,


//val(:,:,2,16) =

   -0.0175,    0.0039,    0.0094,    0.0143,    0.0124,
   -0.0208,   -0.0037,   -0.0177,   -0.0026,   -0.0186,
   -0.0050,    0.0157,    0.0142,    0.0015,    0.0054,
   -0.0012,    0.0044,   -0.0061,   -0.0125,   -0.0065,
    0.0021,   -0.0096,    0.0134,   -0.0071,    0.0002,


//val(:,:,3,16) =

    0.0019,   -0.0356,   -0.0082,   -0.0014,    0.0057,
   -0.0196,   -0.0155,    0.0005,   -0.0120,    0.0044,
   -0.0031,    0.0070,    0.0006,    0.0218,   -0.0028,
   -0.0077,    0.0165,    0.0068,   -0.0115,   -0.0020,
   -0.0282,   -0.0121,    0.0226,   -0.0104,   -0.0153,


//val(:,:,4,16) =

   -0.0165,    0.0011,   -0.0027,    0.0005,    0.0006,
   -0.0177,   -0.0109,   -0.0098,    0.0118,   -0.0086,
    0.0099,   -0.0062,   -0.0011,   -0.0019,    0.0116,
   -0.0146,    0.0090,   -0.0068,   -0.0063,   -0.0089,
   -0.0205,   -0.0015,   -0.0012,   -0.0040,   -0.0105,


//val(:,:,5,16) =

    0.0174,    0.0159,    0.0203,    0.0044,   -0.0054,
    0.0000,   -0.0030,   -0.0019,   -0.0237,   -0.0133,
    0.0028,   -0.0139,    0.0189,    0.0064,    0.0104,
    0.0025,   -0.0127,   -0.0054,   -0.0018,   -0.0107,
   -0.0034,   -0.0066,    0.0007,   -0.0097,    0.0010,


//val(:,:,6,16) =

   -0.0036,   -0.0009,   -0.0201,    0.0101,    0.0071,
   -0.0120,   -0.0057,    0.0022,    0.0078,   -0.0069,
   -0.0251,   -0.0299,   -0.0229,    0.0120,   -0.0235,
   -0.0180,   -0.0371,   -0.0095,   -0.0046,   -0.0175,
   -0.0146,   -0.0327,   -0.0160,   -0.0045,    0.0152,


//val(:,:,7,16) =

   -0.0126,   -0.0007,    0.0099,    0.0048,    0.0263,
    0.0153,    0.0219,    0.0091,    0.0294,    0.0205,
   -0.0046,   -0.0073,   -0.0062,   -0.0004,   -0.0102,
   -0.0016,   -0.0012,    0.0144,    0.0019,   -0.0003,
   -0.0065,    0.0059,   -0.0215,    0.0043,   -0.0081,


//val(:,:,8,16) =

   -0.0043,   -0.0122,   -0.0001,    0.0043,    0.0035,
   -0.0305,   -0.0059,   -0.0151,   -0.0103,   -0.0036,
   -0.0061,   -0.0004,   -0.0118,   -0.0041,   -0.0042,
    0.0198,    0.0187,    0.0052,   -0.0167,   -0.0110,
    0.0043,    0.0087,    0.0055,   -0.0128,   -0.0134,


//val(:,:,9,16) =

    0.0084,   -0.0035,   -0.0101,   -0.0063,   -0.0099,
   -0.0008,   -0.0198,   -0.0067,    0.0086,    0.0254,
    0.0016,   -0.0146,   -0.0012,   -0.0046,   -0.0065,
    0.0045,    0.0046,   -0.0004,   -0.0131,    0.0135,
    0.0078,    0.0038,   -0.0017,   -0.0205,   -0.0053,


//val(:,:,10,16) =

    0.0047,    0.0041,    0.0076,   -0.0029,   -0.0025,
   -0.0105,   -0.0027,    0.0060,   -0.0139,   -0.0022,
   -0.0133,   -0.0042,   -0.0235,    0.0014,   -0.0067,
   -0.0055,   -0.0153,   -0.0266,    0.0126,   -0.0113,
   -0.0013,   -0.0023,   -0.0149,   -0.0098,    0.0085,


//val(:,:,11,16) =

    0.0048,   -0.0048,   -0.0022,   -0.0063,   -0.0114,
    0.0095,    0.0217,    0.0290,    0.0271,    0.0022,
   -0.0034,    0.0030,   -0.0071,    0.0056,   -0.0204,
    0.0063,    0.0047,    0.0150,    0.0014,    0.0051,
   -0.0235,   -0.0179,   -0.0216,   -0.0018,   -0.0228,


//val(:,:,12,16) =

    0.0040,   -0.0016,    0.0011,    0.0061,   -0.0027,
   -0.0200,    0.0100,   -0.0034,    0.0038,   -0.0129,
   -0.0045,    0.0005,    0.0092,   -0.0008,   -0.0135,
   -0.0049,   -0.0187,   -0.0135,   -0.0156,   -0.0149,
    0.0012,   -0.0094,    0.0023,    0.0145,   -0.0103,


//val(:,:,13,16) =

    0.0024,    0.0061,   -0.0177,   -0.0214,    0.0029,
   -0.0007,   -0.0020,    0.0114,    0.0078,   -0.0066,
   -0.0024,   -0.0045,    0.0027,   -0.0152,   -0.0114,
   -0.0011,    0.0024,    0.0019,   -0.0002,   -0.0087,
   -0.0109,   -0.0071,   -0.0063,    0.0019,   -0.0023,


//val(:,:,14,16) =

   -0.0033,    0.0019,    0.0318,    0.0031,    0.0105,
   -0.0206,   -0.0112,   -0.0240,    0.0006,   -0.0153,
    0.0101,   -0.0013,   -0.0117,   -0.0120,   -0.0049,
    0.0020,    0.0046,   -0.0095,    0.0098,   -0.0003,
    0.0233,    0.0092,   -0.0002,   -0.0002,   -0.0101,


//val(:,:,15,16) =

    0.0063,    0.0098,   -0.0032,   -0.0030,    0.0008,
   -0.0058,   -0.0122,    0.0016,    0.0064,   -0.0143,
   -0.0087,   -0.0103,    0.0030,    0.0126,    0.0045,
    0.0015,    0.0215,    0.0296,   -0.0006,   -0.0018,
   -0.0137,   -0.0099,    0.0127,   -0.0250,    0.0083,


//val(:,:,16,16) =

   -0.0136,    0.0142,    0.0046,   -0.0175,   -0.0060,
    0.0037,   -0.0228,   -0.0136,   -0.0311,   -0.0154,
   -0.0197,   -0.0026,   -0.0067,   -0.0273,   -0.0078,
    0.0088,   -0.0035,    0.0068,   -0.0058,    0.0002,
   -0.0076,   -0.0188,   -0.0082,    0.0035,    0.0010,


//val(:,:,17,16) =

   -0.0094,   -0.0003,    0.0005,    0.0084,   -0.0019,
   -0.0137,    0.0082,    0.0225,    0.0198,    0.0030,
    0.0019,    0.0013,   -0.0045,    0.0068,   -0.0098,
   -0.0082,    0.0002,   -0.0048,    0.0048,    0.0158,
   -0.0215,   -0.0049,    0.0094,    0.0108,    0.0202,


//val(:,:,18,16) =

    0.0051,   -0.0165,   -0.0023,   -0.0158,    0.0049,
    0.0008,   -0.0111,    0.0026,    0.0083,   -0.0127,
   -0.0019,   -0.0041,   -0.0026,    0.0027,    0.0146,
   -0.0134,    0.0062,   -0.0037,   -0.0083,   -0.0114,
   -0.0029,   -0.0244,   -0.0019,    0.0021,   -0.0212,


//val(:,:,19,16) =

   -0.0090,   -0.0099,    0.0038,   -0.0038,    0.0123,
   -0.0003,   -0.0132,   -0.0112,   -0.0120,   -0.0163,
    0.0082,   -0.0027,   -0.0095,   -0.0148,   -0.0212,
   -0.0040,   -0.0047,   -0.0189,   -0.0052,    0.0010,
    0.0055,    0.0100,   -0.0217,   -0.0098,   -0.0106,


//val(:,:,20,16) =

   -0.0130,   -0.0268,   -0.0069,    0.0015,   -0.0050,
    0.0147,    0.0046,    0.0262,    0.0138,    0.0117,
    0.0145,    0.0090,   -0.0151,   -0.0145,   -0.0030,
   -0.0075,   -0.0128,    0.0137,   -0.0055,    0.0195,
    0.0000,    0.0162,    0.0052,   -0.0056,   -0.0120,


//val(:,:,1,17) =

   -0.0053,    0.0079,   -0.0415,   -0.0263,    0.0036,
    0.0144,   -0.0132,    0.0066,    0.0571,    0.0514,
    0.0078,    0.0153,    0.0233,    0.0102,   -0.0266,
   -0.0309,   -0.0202,   -0.0419,   -0.0364,   -0.0185,
   -0.0242,   -0.0020,   -0.0105,   -0.0036,    0.0085,


//val(:,:,2,17) =

   -0.0000,    0.0017,    0.0058,    0.0085,   -0.0083,
    0.0004,    0.0147,   -0.0101,   -0.0280,   -0.0040,
    0.0162,    0.0137,    0.0127,    0.0015,    0.0289,
    0.0022,    0.0181,    0.0082,    0.0337,    0.0098,
    0.0065,   -0.0161,   -0.0114,   -0.0193,   -0.0275,


//val(:,:,3,17) =

    0.0005,    0.0099,   -0.0088,   -0.0022,    0.0072,
   -0.0149,    0.0124,   -0.0039,    0.0103,   -0.0110,
   -0.0084,    0.0123,   -0.0173,   -0.0051,   -0.0213,
   -0.0247,    0.0078,   -0.0102,   -0.0071,   -0.0132,
    0.0056,   -0.0128,   -0.0130,    0.0025,   -0.0092,


//val(:,:,4,17) =

    0.0001,    0.0233,    0.0114,    0.0033,    0.0149,
    0.0043,   -0.0100,   -0.0200,   -0.0012,    0.0125,
   -0.0104,    0.0022,    0.0134,    0.0318,    0.0146,
   -0.0164,   -0.0162,   -0.0117,   -0.0255,   -0.0165,
   -0.0278,   -0.0100,   -0.0012,   -0.0029,    0.0057,


//val(:,:,5,17) =

   -0.0092,    0.0248,    0.0003,    0.0152,   -0.0057,
   -0.0068,   -0.0079,   -0.0014,   -0.0075,   -0.0043,
   -0.0113,    0.0051,    0.0202,    0.0237,   -0.0027,
   -0.0046,    0.0019,    0.0246,    0.0234,    0.0052,
    0.0182,   -0.0127,   -0.0072,   -0.0145,   -0.0026,


//val(:,:,6,17) =

   -0.0182,   -0.0167,    0.0061,    0.0249,   -0.0018,
   -0.0075,   -0.0097,    0.0120,   -0.0159,   -0.0254,
    0.0042,   -0.0284,   -0.0055,   -0.0248,   -0.0170,
    0.0006,    0.0063,    0.0032,    0.0065,   -0.0155,
   -0.0025,   -0.0089,   -0.0074,    0.0094,   -0.0150,


//val(:,:,7,17) =

   -0.0029,   -0.0086,   -0.0100,    0.0122,    0.0097,
    0.0038,    0.0104,    0.0093,    0.0124,   -0.0091,
   -0.0025,    0.0128,    0.0076,   -0.0071,    0.0004,
    0.0039,    0.0007,    0.0062,    0.0053,   -0.0214,
    0.0042,    0.0155,    0.0022,    0.0062,   -0.0013,


//val(:,:,8,17) =

   -0.0094,   -0.0038,    0.0093,   -0.0077,    0.0008,
    0.0038,   -0.0061,   -0.0107,   -0.0016,   -0.0066,
   -0.0115,   -0.0078,   -0.0097,   -0.0008,    0.0216,
    0.0171,    0.0118,    0.0141,    0.0187,    0.0061,
   -0.0096,   -0.0111,   -0.0161,   -0.0089,   -0.0099,


//val(:,:,9,17) =

    0.0018,    0.0056,    0.0017,   -0.0177,    0.0080,
   -0.0030,    0.0024,   -0.0069,   -0.0013,   -0.0094,
   -0.0101,    0.0004,    0.0095,    0.0119,   -0.0127,
   -0.0051,    0.0021,    0.0098,    0.0122,    0.0044,
   -0.0059,   -0.0093,   -0.0064,    0.0030,   -0.0037,


//val(:,:,10,17) =

   -0.0078,   -0.0048,    0.0027,    0.0054,    0.0084,
    0.0107,   -0.0026,    0.0140,    0.0113,   -0.0115,
    0.0164,   -0.0039,   -0.0073,   -0.0112,   -0.0117,
   -0.0011,    0.0003,   -0.0096,   -0.0103,   -0.0039,
    0.0050,   -0.0108,    0.0174,    0.0027,   -0.0137,


//val(:,:,11,17) =

    0.0207,    0.0026,   -0.0151,   -0.0054,    0.0118,
    0.0111,    0.0146,    0.0325,    0.0397,    0.0339,
   -0.0018,    0.0094,    0.0070,   -0.0148,   -0.0034,
    0.0100,   -0.0034,   -0.0031,    0.0090,   -0.0006,
    0.0085,    0.0057,   -0.0008,   -0.0031,    0.0171,


//val(:,:,12,17) =

   -0.0121,   -0.0021,   -0.0076,   -0.0095,   -0.0218,
   -0.0127,   -0.0028,   -0.0112,   -0.0058,   -0.0156,
    0.0006,   -0.0122,   -0.0077,   -0.0095,   -0.0147,
    0.0004,   -0.0008,   -0.0144,   -0.0042,    0.0030,
   -0.0029,   -0.0034,   -0.0080,   -0.0088,    0.0060,


//val(:,:,13,17) =

